1982 100
i 0.49513802 -0.5660231 0.14654233 0.3967949 -0.1672015 0.16937812 -0.07757328 0.64048487 0.044893146 0.19598325 -0.22059806 0.040012326 0.1767888 -0.15475143 0.0130693605 0.05928412 -0.17973085 0.13162115 0.057183385 -0.71049196 0.0071627963 -0.11743723 -0.354466 -0.082297705 0.23777266 -0.14681256 0.3071527 0.2988101 0.5196246 0.00054614537 0.09197534 0.2182251 -0.029714448 -0.04397259 -0.20820321 -0.37247458 0.38749608 -0.23993634 0.25705126 -0.15927052 0.067894906 -0.6374434 0.05360533 -0.22008811 0.6795759 0.31083974 0.33936206 -0.31114066 -0.04185209 0.092050076 -0.34393686 0.14095198 0.65363896 0.09709018 0.19526812 -0.11053289 -0.25171104 -0.2710542 -0.26061964 -0.33588585 0.26878142 -0.3415407 0.16766104 0.024316626 0.21738923 0.09989151 -0.09844817 0.023055693 0.24771056 0.68964577 0.20201288 0.46847165 -0.028069038 0.088712595 0.18081386 -0.11050648 -0.22857034 0.18897712 0.23322578 0.19893917 -0.03583671 -0.4034 -0.28971985 -0.0789396 0.017939689 0.36352262 0.07160324 -0.03214736 0.017885506 0.10756795 0.012544174 0.1078927 -0.00047262356 -0.14476688 -0.1113976 -0.28712985 -0.24444069 0.09845421 0.08277988 -0.21669148
life 0.5440291 -0.6260187 0.16838495 0.45303625 -0.19552341 0.18576433 -0.08679849 0.7262124 0.04175402 0.20559236 -0.23457418 0.049150698 0.19048004 -0.18417604 0.0057879775 0.059204962 -0.20026004 0.16058028 0.079492986 -0.80303407 -0.006941991 -0.1371914 -0.39863816 -0.09175657 0.27920198 -0.16399097 0.3461693 0.33902702 0.5892954 0.011215725 0.12004942 0.23824653 -0.030500272 -0.031990893 -0.24166434 -0.4220427 0.4522546 -0.25543857 0.29585925 -0.19065216 0.083785325 -0.7087997 0.06757366 -0.24883728 0.7428631 0.3446954 0.39315197 -0.3601555 -0.024699794 0.114011616 -0.38072568 0.14291619 0.718349 0.11526594 0.21557312 -0.12772466 -0.2685378 -0.31242466 -0.2885951 -0.36345875 0.30147618 -0.36973235 0.18950775 0.016589116 0.25958377 0.112731956 -0.12583877 0.023707712 0.28946736 0.7497989 0.22807677 0.51473576 -0.04851869 0.10567485 0.21204919 -0.127706 -0.24162845 0.21879426 0.25309741 0.22903557 -0.0488708 -0.4480082 -0.31066447 -0.08801686 0.012132316 0.40330875 0.08718441 -0.02875874 0.0101797655 0.10749431 0.0169129 0.128396 0.008298138 -0.14619316 -0.1255237 -0.3172597 -0.27025747 0.10847213 0.09458153 -0.24075568
happy 0.52065814 -0.5895488 0.15144202 0.42317525 -0.18020555 0.1733453 -0.09569508 0.6860467 0.048554618 0.20241787 -0.22432034 0.0381715 0.18284181 -0.17305179 0.015841281 0.056924943 -0.19758105 0.14047657 0.07179993 -0.7473835 -0.00584731 -0.116063714 -0.36435416 -0.083065145 0.2581004 -0.14727944 0.33407238 0.3139323 0.55993533 0.006890478 0.11219541 0.22120048 -0.036584537 -0.030187888 -0.22808301 -0.39300728 0.4212809 -0.24944265 0.28336215 -0.17185435 0.07225082 -0.6718885 0.053318772 -0.23541817 0.70503306 0.32385927 0.3651111 -0.3347706 -0.027746746 0.105447814 -0.3567499 0.13312785 0.6841633 0.106382966 0.19650123 -0.119214654 -0.25356168 -0.29773298 -0.27285323 -0.34833762 0.2905447 -0.35612348 0.182909 0.018580569 0.2311618 0.10778147 -0.1190684 0.020555018 0.2780046 0.7216799 0.2218865 0.4891856 -0.040345628 0.09733303 0.19408362 -0.11668954 -0.2373408 0.19552538 0.24678 0.21641697 -0.03615784 -0.41626057 -0.2972093 -0.081742056 0.011063052 0.3797746 0.078372866 -0.029736632 0.01112533 0.106311165 0.020565795 0.120739594 0.001905843 -0.1441529 -0.11467234 -0.30867305 -0.2516219 0.107943304 0.084386565 -0.2217056
good 0.50762534 -0.58468705 0.15017886 0.41045165 -0.17374319 0.16658393 -0.09466607 0.67405176 0.049220137 0.20683278 -0.23049296 0.03589568 0.18206383 -0.17336969 0.015319396 0.05902582 -0.18961145 0.14288816 0.061806835 -0.74158484 -0.0055096727 -0.12270043 -0.3692699 -0.07787142 0.25472555 -0.14505428 0.3295865 0.31859943 0.54712427 0.0077303476 0.09922426 0.225555 -0.029562667 -0.031168642 -0.22643524 -0.3854118 0.40612507 -0.25044337 0.2841774 -0.17019162 0.07049943 -0.65848 0.058481056 -0.22848608 0.7036779 0.3176113 0.35456875 -0.33938798 -0.037329577 0.09924067 -0.3533953 0.13115436 0.67419434 0.10203428 0.20001143 -0.12440363 -0.2616454 -0.29744223 -0.2765475 -0.35159427 0.28701892 -0.35316724 0.17546572 0.017205382 0.23394763 0.10280195 -0.11079955 0.022578789 0.27232802 0.70889974 0.21628831 0.4832847 -0.03790156 0.09710684 0.19637942 -0.1072756 -0.232462 0.19418618 0.24607065 0.2210598 -0.04107461 -0.4128224 -0.30636773 -0.0770651 0.009064959 0.3854772 0.08147459 -0.02437648 0.021143313 0.11130914 0.016940443 0.111816436 -0.003165998 -0.14274478 -0.1042821 -0.30450588 -0.24480687 0.107130885 0.08552685 -0.2215638
love 0.50692034 -0.57952595 0.15711832 0.42337817 -0.18517448 0.16832165 -0.089621864 0.67797095 0.039866317 0.19796865 -0.22484632 0.032341883 0.1848286 -0.16695349 0.007279132 0.05501589 -0.19579397 0.14100993 0.06639361 -0.74156845 -0.0023415182 -0.12378823 -0.36528254 -0.08299044 0.25722057 -0.14985426 0.32289377 0.3106364 0.54480135 0.002062007 0.109033175 0.2230474 -0.026741289 -0.028040778 -0.22354281 -0.39284617 0.4188901 -0.24482672 0.28612286 -0.17351449 0.07605269 -0.66049504 0.06226941 -0.2323333 0.7030912 0.31873277 0.36585113 -0.3346711 -0.031158727 0.10595283 -0.3568358 0.13840231 0.6752898 0.09329079 0.19649139 -0.120697156 -0.24614266 -0.29414752 -0.2690836 -0.34597102 0.28662252 -0.35399926 0.17343232 0.009093056 0.23366521 0.10135954 -0.11441899 0.014999564 0.2679868 0.6957334 0.2139387 0.47098976 -0.042804018 0.10243867 0.19956137 -0.112691365 -0.23105589 0.20121442 0.23429221 0.21616274 -0.04518081 -0.41705915 -0.29114118 -0.079200484 0.01035709 0.37232327 0.08557319 -0.01642784 0.022329679 0.110158525 0.008974889 0.1270465 0.0025083357 -0.131406 -0.10608563 -0.30965677 -0.25216472 0.10610613 0.07990586 -0.2180966
hate 0.49028033 -0.5564877 0.14779846 0.40147337 -0.1672141 0.15876263 -0.07929761 0.64509124 0.039183255 0.19061911 -0.21144493 0.034606483 0.16670704 -0.1606696 0.0111943465 0.06410141 -0.18145335 0.13318701 0.065009765 -0.71674424 -0.0072502634 -0.11080223 -0.34923032 -0.078545354 0.24635437 -0.14089608 0.30908877 0.29996988 0.52841896 0.009184852 0.10395159 0.21246058 -0.03000101 -0.030369569 -0.20341879 -0.36602396 0.40336412 -0.23238482 0.2719944 -0.16529417 0.0713795 -0.6348341 0.05154582 -0.21900842 0.6644931 0.30730718 0.35140228 -0.31977677 -0.031944536 0.10401921 -0.3416493 0.12568484 0.6345224 0.091241695 0.18831396 -0.11635934 -0.23529826 -0.28022236 -0.26492998 -0.33008206 0.27369243 -0.33177388 0.17475925 0.01080645 0.23004699 0.09945874 -0.108716756 0.013652119 0.26305294 0.66986245 0.20585482 0.45713782 -0.042888064 0.08976919 0.18438596 -0.1066746 -0.22565158 0.18205252 0.2319507 0.20350032 -0.0387569 -0.39862746 -0.2908555 -0.074953236 0.014444854 0.36172214 0.08088028 -0.020117646 0.018692741 0.1044546 0.011266136 0.116519846 0.0024375878 -0.13751987 -0.10451531 -0.29300225 -0.23561886 0.09668308 0.079008244 -0.20265119
fword 0.36479405 -0.3987742 0.11728585 0.29093254 -0.11698219 0.113818586 -0.059089538 0.4796546 0.02618769 0.12650456 -0.1473417 0.021823619 0.11576245 -0.12269487 0.0045223534 0.055261403 -0.12538517 0.10564011 0.047928996 -0.52376115 0.0008987716 -0.085710675 -0.26500326 -0.066780776 0.18522635 -0.10036235 0.23523715 0.21697925 0.38596755 0.011875912 0.074258134 0.1604294 -0.028189227 -0.0170068 -0.1531516 -0.26164562 0.3037241 -0.1772878 0.20312572 -0.12790996 0.04219237 -0.4727077 0.04344181 -0.16042916 0.49168068 0.22431456 0.2660577 -0.23894952 -0.011346708 0.07564478 -0.24314375 0.102159426 0.45689556 0.07692858 0.12920508 -0.0818446 -0.1781741 -0.19745813 -0.20222735 -0.24674201 0.1946769 -0.24521269 0.12666434 0.01495883 0.17137632 0.06874545 -0.08323154 0.0052400585 0.1966969 0.49254942 0.15365152 0.33776876 -0.03515435 0.06298413 0.13279574 -0.08685111 -0.15309969 0.12702082 0.1650265 0.1598849 -0.038794626 -0.30137408 -0.21630107 -0.055469092 0.012617772 0.26926985 0.06367549 -0.008210561 0.007253766 0.07442071 -0.0022309308 0.07804702 0.012401938 -0.10825773 -0.079257414 -0.21778302 -0.16916716 0.08159654 0.057447527 -0.15350221
want 0.47511446 -0.5395698 0.14213476 0.37670305 -0.16539963 0.16099918 -0.07850587 0.6213662 0.033942893 0.17954919 -0.20219657 0.03530677 0.15682669 -0.1614368 0.011444528 0.05677004 -0.17873794 0.13443215 0.056897163 -0.68914056 -0.0071502617 -0.11301375 -0.34304988 -0.07168091 0.22377118 -0.13328859 0.2967579 0.29678333 0.503898 0.0063025006 0.107540935 0.21281058 -0.028626395 -0.03474853 -0.20285937 -0.36096147 0.3854017 -0.23130213 0.25286776 -0.1665919 0.05752626 -0.6062304 0.049177505 -0.21627769 0.65168947 0.28695476 0.33600995 -0.3010225 -0.035364468 0.09295131 -0.32730457 0.13130553 0.6155853 0.09116141 0.17766067 -0.109450065 -0.23435508 -0.26326576 -0.24444212 -0.32324332 0.2688002 -0.32329333 0.16035372 0.008166848 0.21741097 0.098529495 -0.10684019 0.025142461 0.24710487 0.6438181 0.19526125 0.4411901 -0.03487479 0.09358963 0.18032128 -0.11057563 -0.21475935 0.17885813 0.22398777 0.19193098 -0.039990705 -0.39164755 -0.2778171 -0.08267328 0.017070804 0.35223085 0.080376275 -0.025177833 0.0069698375 0.09837246 0.005762057 0.10757599 0.004515733 -0.13535343 -0.09879413 -0.274822 -0.23104216 0.09156456 0.078199245 -0.20457995
blessed 0.49142534 -0.55725825 0.14331879 0.40173 -0.1676164 0.16507185 -0.083996266 0.64103293 0.035365153 0.1920068 -0.2106883 0.03041645 0.1663117 -0.17025098 0.0054885675 0.054348018 -0.18497352 0.13598715 0.06895928 -0.7003672 -0.0035000744 -0.12492189 -0.3446827 -0.079107314 0.24585532 -0.13840267 0.3088062 0.2983562 0.5187057 -0.002118947 0.09467366 0.20531327 -0.025417259 -0.040483344 -0.20728235 -0.37688604 0.38768116 -0.2352053 0.27021983 -0.16147183 0.07418607 -0.62433267 0.06131159 -0.21017274 0.67144376 0.30823445 0.34356132 -0.31383523 -0.033266563 0.10310447 -0.34046426 0.13221504 0.651093 0.091064095 0.19443452 -0.10411256 -0.24536768 -0.27078032 -0.253966 -0.32803842 0.27445942 -0.3351278 0.16971381 0.014374101 0.21553285 0.09506098 -0.11382108 0.020947194 0.25241473 0.6787642 0.21347481 0.4555925 -0.03162689 0.099796906 0.19075587 -0.10363744 -0.2286079 0.18638885 0.2327305 0.20400032 -0.030562444 -0.39922765 -0.28196478 -0.07635167 0.018614529 0.36277732 0.07479902 -0.027827661 0.021109926 0.10964791 0.013539766 0.112714134 0.0020910949 -0.13404176 -0.10635984 -0.29889187 -0.23698765 0.09531771 0.079353765 -0.20284353
god 0.493157 -0.5711449 0.15064801 0.41170245 -0.1732845 0.15765864 -0.07607564 0.6592209 0.024025269 0.20521754 -0.20591703 0.032418065 0.16986516 -0.16007273 0.008233352 0.053731386 -0.19076937 0.12988819 0.0588653 -0.71174055 0.0076975995 -0.1335924 -0.3703402 -0.07227104 0.26200274 -0.13524824 0.30811897 0.3149264 0.5295608 -0.002358532 0.11288749 0.22557345 -0.014698518 -0.047053758 -0.21667214 -0.37903026 0.40417647 -0.22907847 0.27280688 -0.16596514 0.08831954 -0.6506978 0.07348008 -0.21146981 0.6843115 0.32383743 0.35669434 -0.33026707 -0.025388604 0.10081135 -0.34219527 0.1507124 0.66614515 0.09128525 0.18648109 -0.111350216 -0.24322112 -0.27736765 -0.2695532 -0.3282488 0.276488 -0.349183 0.17390771 0.021841606 0.22145827 0.089141175 -0.103539124 0.02307026 0.2766866 0.7003594 0.21996748 0.46316376 -0.03935218 0.09765726 0.19142894 -0.10078762 -0.23964047 0.19732638 0.24171022 0.20679574 -0.041846544 -0.41234776 -0.27922997 -0.09694146 0.014855418 0.36102507 0.06932199 -0.026788529 0.019660406 0.0999175 0.0055208877 0.108760744 -0.0028667576 -0.12681279 -0.09812096 -0.29016343 -0.23861228 0.092992626 0.07471049 -0.21917
feel 0.3767627 -0.42248946 0.115729004 0.30552354 -0.12739214 0.11680555 -0.06939289 0.49654147 0.031579316 0.1437199 -0.16184203 0.019705504 0.13733888 -0.12336756 0.015833521 0.036789376 -0.13129127 0.1049833 0.050558463 -0.5540436 0.0028651888 -0.09169955 -0.26988113 -0.05965013 0.18276842 -0.1031445 0.23628463 0.23191394 0.39533243 -0.0037804884 0.072042495 0.16916709 -0.030580577 -0.03205901 -0.16010308 -0.28391618 0.2958558 -0.18243822 0.19742717 -0.12538992 0.050035108 -0.48909628 0.049758594 -0.15732902 0.5250896 0.24251954 0.26167536 -0.25084886 -0.022185234 0.08013387 -0.25966677 0.10025218 0.49723193 0.069904044 0.15368716 -0.09647932 -0.18525407 -0.21124725 -0.20516202 -0.26210213 0.20299816 -0.25623167 0.13998638 0.0027739776 0.17842598 0.07878237 -0.07721606 0.02502773 0.1933723 0.5194259 0.16504131 0.3565626 -0.03112334 0.07816369 0.14827086 -0.08127161 -0.17559154 0.15081927 0.17548849 0.16305202 -0.035679433 -0.3067183 -0.22692227 -0.06890291 0.018455788 0.28077346 0.05902991 -0.028206877 0.00423702 0.08181154 0.0082479175 0.084477745 -0.0031019559 -0.10469242 -0.08138722 -0.23035845 -0.18909247 0.08680477 0.0636373 -0.16483979
sad 0.42563155 -0.4894943 0.12995687 0.34688234 -0.14430945 0.13813156 -0.07818058 0.5667453 0.03560878 0.16841914 -0.18929484 0.029546417 0.1524526 -0.1413267 0.011618863 0.048765797 -0.16110294 0.12520832 0.061367046 -0.6164162 0.0003729438 -0.09650968 -0.30893838 -0.067904145 0.21481493 -0.12011658 0.2766455 0.26525062 0.45885417 0.007111662 0.08911087 0.18352075 -0.032878816 -0.028829789 -0.18956546 -0.3198417 0.33960485 -0.20243688 0.23349977 -0.14756472 0.061644837 -0.5534773 0.04778655 -0.18910843 0.5817422 0.26190493 0.3021466 -0.27938902 -0.023349414 0.07984811 -0.3007717 0.114790276 0.56355214 0.082384676 0.16513032 -0.10343827 -0.21579581 -0.23985702 -0.22357595 -0.2883107 0.23213434 -0.29009765 0.14412296 0.01864957 0.19703354 0.09051297 -0.08987463 0.015829327 0.21791534 0.5939542 0.17413014 0.3963972 -0.02671859 0.084623545 0.16819957 -0.090082 -0.19300115 0.16382091 0.20493086 0.17378089 -0.037658606 -0.34989214 -0.250171 -0.07253704 0.007524855 0.31622532 0.071784 -0.024562078 0.009015056 0.085570246 0.013318743 0.09903781 0.00080291834 -0.1176762 -0.096746884 -0.24745463 -0.2063157 0.08794547 0.07418384 -0.18132643
best 0.46106815 -0.537775 0.14364846 0.3952728 -0.17242837 0.14575756 -0.084807076 0.6194666 0.047026005 0.18796712 -0.21005675 0.03023059 0.1674647 -0.16663884 0.01480789 0.057941116 -0.18404053 0.13978806 0.058165293 -0.690042 -0.0065691555 -0.10343766 -0.33910406 -0.07141146 0.23303086 -0.13642232 0.30336127 0.2876407 0.513844 -0.003879968 0.10496815 0.20178455 -0.022213535 -0.034527656 -0.20643461 -0.35676247 0.38149866 -0.22142604 0.26113945 -0.15038759 0.07348836 -0.59446025 0.04790498 -0.20607927 0.6510474 0.30067724 0.33450046 -0.30969763 -0.036690265 0.09679849 -0.3245128 0.12921953 0.6266272 0.09715255 0.17582749 -0.09751635 -0.23822826 -0.26757026 -0.23658958 -0.32584932 0.25980982 -0.32972333 0.16393271 0.011056543 0.21927553 0.09960109 -0.09808229 0.025566772 0.2471282 0.65083385 0.19870579 0.44949222 -0.030687945 0.088351876 0.18212022 -0.107814126 -0.20927073 0.18811171 0.2166111 0.19677758 -0.039812256 -0.38033694 -0.27234167 -0.07971931 0.01627947 0.3521594 0.07719893 -0.017387364 0.017542588 0.09512245 0.0076417117 0.11217264 -0.004484773 -0.12938587 -0.09282364 -0.2846918 -0.22277203 0.09817465 0.07078168 -0.19476774
like 0.51538044 -0.5908576 0.1564612 0.4229907 -0.17956457 0.1740296 -0.08352914 0.68118954 0.041976 0.20455776 -0.22848089 0.04158235 0.18827714 -0.17423455 0.013272434 0.060311362 -0.1912817 0.14435877 0.06329283 -0.75306326 0.0017711142 -0.118280545 -0.37593207 -0.07710449 0.2542635 -0.14555772 0.33359042 0.3183384 0.5562222 0.006302996 0.11068504 0.22966994 -0.02996252 -0.038014762 -0.22423252 -0.39125496 0.41104782 -0.24241313 0.281671 -0.17248261 0.0700586 -0.66160333 0.06226088 -0.23031846 0.7004044 0.32691726 0.36368114 -0.33364707 -0.0395949 0.10877788 -0.35232687 0.14113918 0.67897874 0.101100504 0.1971556 -0.12285826 -0.26061958 -0.29227954 -0.2742719 -0.34387434 0.28499797 -0.3521534 0.17999475 0.0129381055 0.23221351 0.098642744 -0.10589292 0.025332624 0.26953042 0.71489745 0.21850601 0.4793876 -0.04209467 0.09385831 0.19625157 -0.11644155 -0.23979925 0.1924546 0.2443066 0.21047531 -0.047468737 -0.41064766 -0.30215073 -0.07850136 0.011429168 0.38084903 0.07623812 -0.025881233 0.018056227 0.11297207 0.010261047 0.12295299 -0.00066757266 -0.1484512 -0.10943641 -0.30705026 -0.25143903 0.107062034 0.09151395 -0.21644601
bad 0.40440592 -0.45818487 0.12683198 0.32257572 -0.14039285 0.13604726 -0.07062983 0.5303061 0.039813988 0.16015679 -0.18404846 0.023134984 0.13794875 -0.13088493 0.012694526 0.04892709 -0.14536326 0.10900712 0.051622625 -0.59083194 -0.0070055393 -0.09781336 -0.2908401 -0.06691884 0.20552082 -0.12048009 0.26369914 0.2555608 0.4274693 -0.0015293746 0.08920706 0.17302738 -0.032399725 -0.035632562 -0.17740823 -0.3100565 0.31934294 -0.20172425 0.22396705 -0.13347998 0.054523192 -0.52276367 0.0414801 -0.17958735 0.55500466 0.2599784 0.28203467 -0.2623589 -0.031799447 0.07656154 -0.2759654 0.11009034 0.5393822 0.07529886 0.16382372 -0.09354126 -0.20816544 -0.23220143 -0.22236603 -0.28097802 0.22805804 -0.28309128 0.14321114 0.020986237 0.18059862 0.08307746 -0.08122896 0.022667976 0.20616539 0.565547 0.1781484 0.37892777 -0.03466713 0.067297064 0.16141416 -0.08958297 -0.1804802 0.15757406 0.1960867 0.17173775 -0.03151848 -0.3293472 -0.24365658 -0.071375355 0.006938142 0.30785573 0.058819227 -0.016216457 0.015145767 0.09098991 0.016463606 0.09112434 0.0062818 -0.11520322 -0.08309764 -0.24057116 -0.18982208 0.09022332 0.06985443 -0.1689314
really 0.34584665 -0.394754 0.105483755 0.27839825 -0.1180495 0.11096558 -0.05519576 0.45314822 0.024551481 0.13550964 -0.15080144 0.020953111 0.12465487 -0.113311164 0.011131103 0.034716565 -0.1252544 0.09687564 0.045922685 -0.5016621 0.0017516477 -0.07829702 -0.24551994 -0.057032775 0.16692002 -0.10332686 0.21369573 0.21130815 0.36407015 0.0027778198 0.06705677 0.15293895 -0.022084115 -0.022522561 -0.14586136 -0.2587904 0.27813792 -0.16737497 0.18936457 -0.11575846 0.04643502 -0.44462973 0.04199697 -0.15455934 0.4668199 0.21547015 0.24411629 -0.2222519 -0.023429425 0.071612984 -0.23779446 0.09292448 0.4518821 0.061123244 0.13741629 -0.08023768 -0.16827227 -0.19405174 -0.18506356 -0.22906457 0.1907961 -0.23883078 0.11492021 0.007059562 0.15129724 0.06963048 -0.074940935 0.016777145 0.17735575 0.47578248 0.14836717 0.32460684 -0.02353204 0.05962558 0.12509762 -0.07349053 -0.15966079 0.13359275 0.1627966 0.14522289 -0.031714432 -0.27402568 -0.19881576 -0.05148326 0.013211221 0.2507306 0.05191272 -0.014084539 0.012359313 0.06950629 0.009096481 0.078587584 -6.9599926e-05 -0.10099549 -0.069958694 -0.20607473 -0.16696586 0.075576276 0.061118204 -0.1499538
friends 0.42255446 -0.49464095 0.12643178 0.35689074 -0.16299593 0.13465764 -0.07831123 0.5668304 0.040381126 0.16312966 -0.18816003 0.028462399 0.14862457 -0.14833845 0.0113841 0.047444675 -0.16791226 0.12613586 0.05853323 -0.6224937 -0.002515528 -0.09831944 -0.31077057 -0.0672629 0.20994166 -0.12732233 0.27676484 0.26022816 0.46586856 -0.0050136996 0.08615123 0.187821 -0.026775464 -0.029579796 -0.18658502 -0.32202548 0.33841413 -0.20426664 0.23747265 -0.13630433 0.06533612 -0.5453652 0.050142147 -0.18293796 0.59019166 0.26063657 0.29252535 -0.27358818 -0.03194236 0.08288063 -0.29092166 0.11252142 0.5613322 0.08750891 0.16814463 -0.09655459 -0.22281262 -0.23688868 -0.22297077 -0.29001793 0.23060165 -0.29711002 0.14535572 0.005242527 0.192368 0.09042393 -0.09715773 0.026032876 0.22442226 0.594603 0.1807401 0.40302047 -0.033863854 0.074591935 0.16347492 -0.09591519 -0.19319245 0.17085285 0.20676005 0.17643456 -0.040562067 -0.34248126 -0.23934959 -0.078185566 0.0075399624 0.30972177 0.06265185 -0.019520141 0.009926047 0.08295509 0.011331921 0.10133317 0.00131525 -0.11195751 -0.09236566 -0.26098448 -0.19779909 0.085378066 0.07153289 -0.18257068
everything 0.43852934 -0.5005264 0.13667561 0.3598811 -0.1536615 0.14481513 -0.076279506 0.5765565 0.0312899 0.16603318 -0.18664461 0.027555464 0.15596455 -0.147241 0.00548083 0.05584136 -0.16838843 0.12625568 0.054366846 -0.6350851 -0.0062828623 -0.0988114 -0.31603655 -0.07401631 0.21375884 -0.13010892 0.2838083 0.271594 0.46829253 0.005574823 0.0878276 0.19247353 -0.02285616 -0.02428013 -0.18318622 -0.3280525 0.3623796 -0.20580572 0.24151075 -0.15165655 0.06212634 -0.5712344 0.0495651 -0.19848183 0.6008293 0.27203867 0.31217527 -0.2849815 -0.030317081 0.092156984 -0.29957017 0.12247803 0.57604384 0.085762635 0.16555291 -0.10550587 -0.22249731 -0.2497405 -0.2288851 -0.2904705 0.24302174 -0.29846627 0.15486924 0.017149393 0.19628148 0.08606443 -0.09871228 0.015807405 0.23589502 0.60729694 0.184601 0.4135463 -0.03180336 0.087868914 0.171205 -0.099914335 -0.20412275 0.16799244 0.2051283 0.17805114 -0.034099218 -0.3619411 -0.25796053 -0.06942441 0.017625783 0.32476816 0.0737606 -0.016007805 0.015422398 0.08891875 0.01324316 0.1049073 -0.0012563096 -0.122382134 -0.0921971 -0.2582971 -0.21423127 0.088441856 0.070292585 -0.18774979
ever 0.44258898 -0.51581967 0.12626131 0.37323928 -0.16990861 0.14793272 -0.07635738 0.5853044 0.03994745 0.17305976 -0.2008883 0.038610958 0.16116053 -0.15047254 0.010362027 0.054482847 -0.16776659 0.12583111 0.066823885 -0.64754033 0.0010372361 -0.102227755 -0.31581748 -0.06592098 0.21815301 -0.12766856 0.29344833 0.27844286 0.48583022 0.002106474 0.092713125 0.19267803 -0.027336378 -0.037264273 -0.18628478 -0.33779582 0.36491597 -0.20985143 0.24443752 -0.14688253 0.0697786 -0.5721276 0.05344323 -0.19849034 0.6186742 0.27684206 0.304112 -0.28807485 -0.031433053 0.08696577 -0.30295706 0.11828614 0.58901465 0.08377264 0.16848427 -0.09207757 -0.22339803 -0.25384563 -0.23246822 -0.2990938 0.24274166 -0.31486025 0.15281822 0.008289042 0.20782115 0.08626268 -0.101930335 0.027179278 0.24118742 0.61268425 0.19546069 0.41885182 -0.031728312 0.0785466 0.17193875 -0.10418372 -0.19666378 0.17085685 0.21472654 0.18298972 -0.044281345 -0.366386 -0.24962097 -0.08114353 0.013418467 0.32423994 0.07214046 -0.022147091 0.011432747 0.08974471 0.008303419 0.107106455 -0.0022018957 -0.12385092 -0.09122661 -0.26524296 -0.20969678 0.0997964 0.07744498 -0.18561332
laughing 0.37003928 -0.4366104 0.117987595 0.27579907 -0.1426494 0.10789009 -0.07183455 0.48000678 0.026870638 0.157746 -0.15552449 0.029046286 0.13962762 -0.12604298 0.024092795 0.036034502 -0.1185493 0.075779356 0.050840806 -0.526112 0.014637414 -0.07505475 -0.25960004 -0.040388733 0.18755493 -0.11654051 0.22582963 0.23545103 0.39849404 0.020960668 0.07522338 0.16238278 -0.016618462 -0.03778562 -0.16286051 -0.273888 0.28721777 -0.16536194 0.18251836 -0.1337553 0.032884836 -0.48111865 0.03963687 -0.15119343 0.5001117 0.2104374 0.27016765 -0.21865551 -0.02425544 0.06839193 -0.2493392 0.08907795 0.48439535 0.055678844 0.16171251 -0.09505673 -0.16324362 -0.21997629 -0.20305741 -0.23255287 0.21691266 -0.26377144 0.14635432 0.030729394 0.16152954 0.089512475 -0.081673406 0.0068591945 0.17937125 0.51027375 0.16569704 0.3391812 -0.026506469 0.046645697 0.14931542 -0.065304615 -0.15956946 0.15241103 0.16728602 0.13142179 -0.041064177 -0.29546252 -0.22460712 -0.059436727 0.023117203 0.2839161 0.0736505 -0.010380189 0.024107963 0.09534723 0.004028216 0.09994153 0.020786155 -0.116796166 -0.09649404 -0.23297545 -0.18475446 0.06871036 0.074695595 -0.1552351
sword 0.4884653 -0.565854 0.15304297 0.40085012 -0.17808154 0.16859786 -0.08323028 0.6501658 0.043792743 0.19666809 -0.20978384 0.038640868 0.17678292 -0.16596699 0.011829521 0.05565748 -0.18419267 0.13997523 0.06397977 -0.728746 0.0003754974 -0.11618076 -0.35239556 -0.08196453 0.24030009 -0.14696333 0.31533682 0.30327317 0.5391135 0.003897232 0.10023941 0.21789482 -0.03673357 -0.028799653 -0.21600026 -0.3740736 0.40648967 -0.24287109 0.2767555 -0.17478728 0.076021075 -0.63899326 0.05356764 -0.2205779 0.68505454 0.30960718 0.349275 -0.32883033 -0.032290712 0.10321257 -0.34092626 0.12864514 0.6555408 0.10032876 0.18883403 -0.10851863 -0.24319245 -0.2852399 -0.2582551 -0.33939254 0.27075818 -0.3438988 0.17622462 0.010637037 0.227043 0.10281385 -0.11349779 0.022501031 0.2635393 0.68287855 0.2151421 0.460496 -0.036350638 0.09539644 0.19232123 -0.11147256 -0.22449665 0.19398469 0.23677473 0.20376495 -0.044896737 -0.40658003 -0.28577012 -0.07858815 0.010272109 0.36702067 0.078810975 -0.022329364 0.01187469 0.102628075 0.0108702965 0.116495885 0.0014399221 -0.1321584 -0.10400409 -0.30126038 -0.2353793 0.09810669 0.086227804 -0.21516123
loud 0.34177634 -0.4067123 0.114859 0.27911425 -0.12593651 0.103093214 -0.047298104 0.46518275 0.03425441 0.14749308 -0.14013575 0.008882925 0.1304145 -0.10120865 0.02432773 0.02471997 -0.12618983 0.08061489 0.060025584 -0.5136594 -0.0054725735 -0.07494249 -0.25615653 -0.04435698 0.15624371 -0.08853989 0.2441422 0.20247857 0.38487333 0.008991849 0.08578945 0.14747998 -0.03289545 -0.014247931 -0.1352993 -0.26834512 0.26836792 -0.18017244 0.1869906 -0.10657736 0.061435506 -0.440743 0.033647347 -0.17042194 0.48006088 0.20319642 0.2567035 -0.23667859 -0.029666847 0.06563269 -0.24633491 0.0792064 0.43897292 0.059613846 0.15076867 -0.08461626 -0.157062 -0.18979606 -0.17160867 -0.23342633 0.18504529 -0.2523058 0.13661031 -0.007862964 0.1642068 0.07337311 -0.08831654 0.00698692 0.18406975 0.48820925 0.16042607 0.32293117 -0.021423621 0.049091883 0.13143384 -0.06507791 -0.14524695 0.14518943 0.17599724 0.15186135 -0.027610108 -0.27655587 -0.20241778 -0.04568871 0.024847755 0.26031384 0.04574155 -0.023573712 0.0057593063 0.063465245 -0.0069086878 0.077156626 -0.0037264184 -0.07915053 -0.07900447 -0.19882706 -0.17607462 0.08340502 0.049040053 -0.14251685
get 0.50378054 -0.5739735 0.14819631 0.40234604 -0.17646196 0.16670534 -0.085116506 0.6691509 0.040386565 0.19401287 -0.22175293 0.035995655 0.1818411 -0.16407013 0.017750412 0.055592842 -0.18329963 0.13847044 0.06722377 -0.7350954 -0.0023673566 -0.11049891 -0.36271083 -0.080914386 0.24685624 -0.15105568 0.32322899 0.3150294 0.53932506 0.00819874 0.10508385 0.22037366 -0.031630773 -0.035272025 -0.2125776 -0.3756753 0.40502074 -0.24469246 0.27215287 -0.17611822 0.07884033 -0.64510953 0.052851103 -0.21878432 0.69419384 0.3095501 0.3583578 -0.32217795 -0.036934126 0.10015349 -0.3467154 0.13879736 0.6620148 0.09789628 0.19049618 -0.112243176 -0.25301927 -0.27693227 -0.2713656 -0.34159184 0.2814145 -0.3532509 0.18167189 0.017854305 0.23075028 0.097380884 -0.11488089 0.018853778 0.26704487 0.69907916 0.21287137 0.4719631 -0.030193293 0.09417657 0.19323741 -0.117442004 -0.23773 0.19201794 0.2375051 0.20291428 -0.047379553 -0.4046178 -0.29463747 -0.08422578 0.011125864 0.36702946 0.08270624 -0.02286863 0.018742029 0.1076514 0.012426341 0.11648139 -0.0054211365 -0.14362943 -0.101671666 -0.2945156 -0.2411399 0.09880443 0.087089464 -0.20894745
much 0.4087381 -0.47055113 0.13046372 0.3432561 -0.15203539 0.1330584 -0.06327359 0.5456105 0.026417116 0.16744836 -0.17943233 0.027438425 0.1502868 -0.13373272 0.008645557 0.051389012 -0.16276106 0.11940281 0.050984588 -0.60032487 -0.004092452 -0.10370124 -0.29848537 -0.06187216 0.20958455 -0.121900804 0.26299608 0.24864784 0.44548574 0.0016876695 0.08427618 0.18116194 -0.027255258 -0.029166037 -0.17279138 -0.31478587 0.33252582 -0.19507597 0.22378369 -0.14245081 0.059980556 -0.5379071 0.053409155 -0.18708454 0.5606067 0.2633118 0.2963335 -0.2733079 -0.026336933 0.08888873 -0.29088697 0.11419044 0.54759103 0.07563447 0.15603806 -0.09367614 -0.20143794 -0.23466125 -0.21264692 -0.2783464 0.23079173 -0.28908393 0.14171742 0.013216343 0.18884456 0.07571645 -0.089801855 0.013189883 0.227267 0.57636803 0.17009306 0.38210338 -0.035176184 0.07850189 0.15211421 -0.092047125 -0.19031574 0.16042972 0.19488488 0.17072614 -0.035421897 -0.334418 -0.23910458 -0.06456264 0.008136308 0.30816308 0.06423582 -0.015999286 0.0066526234 0.081238076 0.014611047 0.09456499 -4.07719e-05 -0.10778299 -0.085080594 -0.24080612 -0.20596932 0.08560667 0.06320806 -0.17656745
great 0.52664924 -0.5951128 0.15553631 0.43558216 -0.19056371 0.17375015 -0.0885961 0.7015741 0.0460548 0.20343511 -0.22797084 0.03708358 0.18730372 -0.18035638 0.01390685 0.06403584 -0.19460593 0.14484261 0.070541784 -0.76965374 -0.008018855 -0.11818686 -0.3770127 -0.07938507 0.2636888 -0.14918076 0.33325404 0.31833115 0.56584704 0.0041818395 0.11546715 0.23517424 -0.02616403 -0.031107146 -0.22202718 -0.4051022 0.43068814 -0.25188136 0.2865874 -0.1763341 0.07954852 -0.6822543 0.056366052 -0.23144932 0.7271027 0.3301767 0.37025464 -0.34837377 -0.03948052 0.10936285 -0.36558372 0.14052042 0.6994231 0.10684085 0.20123424 -0.11381233 -0.26625657 -0.29876542 -0.27203277 -0.3586101 0.29434717 -0.3687287 0.18608533 0.017542692 0.23934947 0.10768847 -0.120860055 0.016772974 0.2764641 0.7216605 0.22818701 0.49339223 -0.037473854 0.10634807 0.20296702 -0.12049252 -0.24325931 0.20341575 0.24608897 0.21686736 -0.046015717 -0.4247629 -0.3061071 -0.08642821 0.018135272 0.38641024 0.08098517 -0.021188954 0.021571156 0.11407964 0.01174828 0.12882398 0.003394364 -0.14542815 -0.104035564 -0.31448916 -0.25390273 0.10662363 0.090047605 -0.22826263
need 0.4544306 -0.5207374 0.14340924 0.37312806 -0.16938825 0.15544726 -0.08132778 0.6070707 0.036987953 0.18434016 -0.19455715 0.02912663 0.15721095 -0.15392822 0.017698355 0.049067885 -0.17296386 0.12556915 0.06128093 -0.6716454 -0.00043201793 -0.10275938 -0.32999113 -0.072056286 0.22013135 -0.12824449 0.29537624 0.2773311 0.49248672 0.008332591 0.097218275 0.20428972 -0.025369896 -0.029187761 -0.19544251 -0.34971496 0.3647171 -0.2221858 0.2579007 -0.1556355 0.063572675 -0.5890507 0.04597984 -0.20560805 0.62603414 0.27984703 0.33042002 -0.3000781 -0.033898063 0.09777102 -0.31910008 0.11622796 0.60393775 0.0820894 0.17856257 -0.10048401 -0.22838998 -0.25694877 -0.2397646 -0.3050072 0.25751382 -0.31429115 0.16647871 0.011954872 0.21266772 0.08470652 -0.10494391 0.020352235 0.24137977 0.62784266 0.19056882 0.4269528 -0.039605375 0.091222644 0.17404057 -0.10993231 -0.2114546 0.18171892 0.21562168 0.19216399 -0.03341815 -0.37063313 -0.26884654 -0.07790473 0.020503 0.33470112 0.07723482 -0.018405607 0.01226633 0.100726366 0.0055856244 0.112531185 -0.00059043977 -0.12847905 -0.091952585 -0.27557755 -0.21944645 0.09326238 0.07698479 -0.1989793
always 0.42234278 -0.47836456 0.12973624 0.33309233 -0.14334543 0.13931285 -0.07404934 0.5518443 0.03262793 0.16926457 -0.18301435 0.026714155 0.14428678 -0.14264056 0.009895016 0.047661416 -0.15376769 0.11735862 0.058955215 -0.61184233 2.9664749e-05 -0.09525618 -0.29498917 -0.06790727 0.20676062 -0.122812234 0.26094672 0.25424328 0.44960532 0.0029933574 0.08564476 0.17640585 -0.027650215 -0.028419983 -0.18682048 -0.3083685 0.33766177 -0.1985873 0.22533989 -0.1364257 0.06172289 -0.54254055 0.044670813 -0.18260889 0.5735999 0.2573787 0.29497838 -0.2673125 -0.025321256 0.0797308 -0.28757676 0.11052393 0.5515319 0.078354016 0.16366968 -0.09804064 -0.20923664 -0.23428984 -0.2150659 -0.28079647 0.23352894 -0.28881875 0.14543982 0.015057859 0.19330326 0.07965186 -0.08781638 0.02505663 0.2156985 0.58194 0.18023477 0.38772383 -0.03503686 0.07425841 0.15974185 -0.09168368 -0.18923384 0.16183375 0.20173512 0.16749516 -0.030631633 -0.33942398 -0.24499217 -0.0683847 0.0154797165 0.31210068 0.06268844 -0.025996288 0.01305467 0.09389478 0.011621329 0.09623592 -0.00059932924 -0.113540486 -0.08878758 -0.24675976 -0.19619495 0.08651789 0.067810066 -0.18282507
person 0.35786524 -0.40703222 0.103842385 0.2927334 -0.11626431 0.11936031 -0.06535858 0.47272778 0.0317076 0.14707783 -0.15672807 0.023533514 0.12264057 -0.11504519 0.015551637 0.044575017 -0.12536573 0.09418235 0.047627788 -0.5228312 0.0028511435 -0.077384524 -0.2514372 -0.050412387 0.16897784 -0.09673947 0.22328651 0.22467907 0.3798124 0.007299635 0.07172423 0.15881665 -0.030318191 -0.0266236 -0.16018794 -0.26361698 0.28128076 -0.17168756 0.19528805 -0.114605024 0.043015514 -0.4559638 0.039984748 -0.15663046 0.48907515 0.22216763 0.24499357 -0.23004985 -0.026031574 0.0735107 -0.24315281 0.100597985 0.47201118 0.06484869 0.14775695 -0.08876162 -0.17556465 -0.1977261 -0.1894777 -0.23647997 0.19942787 -0.24604309 0.13259059 0.007479448 0.16291821 0.07212198 -0.07198638 0.02281014 0.18139578 0.4857243 0.15189368 0.33600822 -0.0296548 0.0671993 0.13092797 -0.08093275 -0.16207908 0.13661021 0.16876368 0.15463689 -0.034864087 -0.2826633 -0.2136293 -0.062816456 0.016983662 0.25863838 0.062212758 -0.0154499225 0.0059986054 0.08383874 0.005841477 0.07953887 0.0075833728 -0.095992744 -0.08425626 -0.21227229 -0.16994931 0.07256491 0.06671511 -0.14813834
know 0.40598905 -0.47015724 0.12197233 0.32878867 -0.14297295 0.13249134 -0.06749983 0.5402027 0.0294067 0.15930861 -0.1804187 0.030479185 0.14219964 -0.13166128 0.006640474 0.04661957 -0.15705635 0.112521715 0.048985578 -0.6000152 -0.00011569159 -0.09825573 -0.29384962 -0.06897004 0.20090806 -0.11880803 0.25804374 0.25589263 0.4381808 0.0043593445 0.08137539 0.17829202 -0.024239935 -0.029964926 -0.17527595 -0.30767453 0.33133805 -0.1967161 0.22568151 -0.14304686 0.05744946 -0.5293405 0.050117183 -0.18305244 0.5555094 0.2539495 0.29229125 -0.27060315 -0.023448756 0.080916755 -0.287427 0.111018874 0.5388427 0.07556975 0.1626561 -0.09859613 -0.2065642 -0.22736149 -0.21017742 -0.28112373 0.22147696 -0.28137597 0.14102116 0.008550862 0.18992072 0.08769505 -0.09242077 0.016590372 0.21422607 0.5661541 0.1743876 0.38594368 -0.03204855 0.07799883 0.15987001 -0.0886381 -0.18388925 0.15792386 0.19286366 0.17130886 -0.032287363 -0.33592147 -0.23865466 -0.07087368 0.010036572 0.3024267 0.06870095 -0.019759664 0.01125133 0.09068371 0.005637891 0.0946493 0.0022891955 -0.110900246 -0.08253065 -0.24466626 -0.19603625 0.0845313 0.071611136 -0.1761954
got 0.47949502 -0.5487756 0.14344054 0.38545355 -0.17867428 0.16076745 -0.083156765 0.6350288 0.03924393 0.18311533 -0.2099492 0.03484035 0.17155403 -0.16698635 0.014440454 0.05732283 -0.18278003 0.13495839 0.06736859 -0.6927699 -0.009409216 -0.10586691 -0.3437394 -0.07340456 0.23381561 -0.14452183 0.30602026 0.29257038 0.5159541 0.010763299 0.10382737 0.2106737 -0.02566795 -0.03249462 -0.20745304 -0.3691124 0.380998 -0.23455952 0.25799805 -0.16158868 0.07313531 -0.6216927 0.049485102 -0.214017 0.6601884 0.30291045 0.3323861 -0.3110289 -0.03670624 0.097083546 -0.32982478 0.12802912 0.6251133 0.09796679 0.18494347 -0.10195243 -0.24652624 -0.26677042 -0.24947299 -0.3295474 0.2694934 -0.33419213 0.16638309 0.015151228 0.22530225 0.10208949 -0.11070776 0.015660571 0.25504157 0.6550175 0.20706958 0.4453325 -0.026810214 0.09067956 0.1879671 -0.111057 -0.21445605 0.18158427 0.23208778 0.20156991 -0.039245058 -0.38900632 -0.2738943 -0.07607211 0.016785936 0.3463395 0.07667632 -0.026883917 0.00854983 0.09807464 0.014458394 0.103429824 -0.0059532425 -0.13092934 -0.097356565 -0.28977302 -0.22394511 0.09942149 0.0765161 -0.20770207
never 0.482443 -0.55161744 0.14384705 0.3879688 -0.16841617 0.16320735 -0.08885536 0.6426496 0.04245805 0.1867402 -0.20771529 0.03779247 0.16319445 -0.16169418 0.014461816 0.06327195 -0.1831906 0.14296477 0.061422024 -0.7101142 -0.0020351047 -0.11875184 -0.34873915 -0.08079868 0.23303421 -0.1446351 0.3095431 0.29562393 0.5180449 0.0019505025 0.10757551 0.20749077 -0.034574404 -0.029633166 -0.21199179 -0.3626689 0.38748765 -0.22817607 0.26293895 -0.17025155 0.0631 -0.62021875 0.054294765 -0.21917754 0.6646266 0.29659945 0.3380119 -0.3138767 -0.03582501 0.09993307 -0.33032274 0.12539105 0.64079195 0.08869825 0.19104455 -0.105933316 -0.23427592 -0.27279535 -0.24829419 -0.3261068 0.2689885 -0.33394736 0.16050701 0.018250495 0.21825142 0.09494713 -0.112850524 0.020407101 0.24686837 0.6708049 0.1985651 0.4600454 -0.03746884 0.0947382 0.1783247 -0.11498679 -0.21445008 0.18267785 0.23213941 0.20231843 -0.03711353 -0.39101052 -0.27745575 -0.078764126 0.016934838 0.35337487 0.07774225 -0.025343474 0.008508929 0.10524557 0.014568831 0.1163156 0.0057561384 -0.13792671 -0.10157488 -0.2814033 -0.2266039 0.1043644 0.0814665 -0.2026852
proud 0.33428526 -0.38200268 0.10184272 0.27855524 -0.116785765 0.10676791 -0.056428343 0.4376421 0.031959936 0.13173914 -0.15110035 0.02394022 0.12229982 -0.11689242 0.011736659 0.04298441 -0.12362007 0.09017798 0.044864643 -0.4830934 0.0020365242 -0.080397464 -0.2391257 -0.05066878 0.1618309 -0.09595174 0.21394154 0.20690097 0.3638076 0.003351744 0.0654081 0.14844678 -0.025127457 -0.020639692 -0.14948922 -0.25234306 0.26928473 -0.165702 0.18007782 -0.113436274 0.050564162 -0.43053684 0.03682668 -0.15318023 0.46612078 0.20530027 0.23924279 -0.2156853 -0.0205562 0.06397422 -0.23532604 0.087954886 0.44930065 0.063573234 0.13574676 -0.07617636 -0.17116858 -0.19106604 -0.1750858 -0.2285269 0.18267035 -0.23090315 0.11811031 0.006929502 0.153841 0.07147729 -0.07400334 0.016741894 0.17892091 0.46789312 0.13989888 0.31908098 -0.029083636 0.06627049 0.12606317 -0.074684225 -0.15506063 0.13547291 0.15951824 0.13910776 -0.023787789 -0.27558833 -0.19371817 -0.054073665 0.0044826274 0.25282082 0.052085932 -0.01862198 0.008827107 0.076846704 0.0046225223 0.07935589 0.0004415143 -0.08953005 -0.068653576 -0.20296879 -0.15613872 0.07282439 0.059827004 -0.13850862
oh 0.30934396 -0.3435682 0.08879962 0.24930961 -0.109887585 0.106633045 -0.046888262 0.4011741 0.024461629 0.119930685 -0.13446212 0.020948255 0.113900214 -0.100067854 0.0018243147 0.03505025 -0.12250342 0.07795045 0.039272692 -0.44200376 0.0008646542 -0.07599381 -0.2190057 -0.0480868 0.15409689 -0.083218955 0.1929875 0.18055406 0.33208615 -0.0024573551 0.06412171 0.13235518 -0.01944655 -0.02594006 -0.13515872 -0.23162293 0.24821165 -0.14409608 0.16285923 -0.10851306 0.05075078 -0.39424828 0.030676458 -0.1363953 0.42392507 0.18634392 0.21751742 -0.1979011 -0.018142257 0.0633916 -0.21869457 0.087849565 0.3980691 0.05110614 0.1196713 -0.06381777 -0.15508126 -0.17142028 -0.16546485 -0.20265305 0.16812399 -0.21734571 0.10669821 0.011812754 0.13518207 0.064603075 -0.06273065 0.008263496 0.1643518 0.42590642 0.12528555 0.27900818 -0.024485037 0.055615284 0.110032946 -0.06906187 -0.13954003 0.12037699 0.14545877 0.12255987 -0.022184815 -0.2435338 -0.17677142 -0.054105457 0.014995056 0.23273699 0.0458825 -0.01056704 0.008934286 0.07184825 0.0017975928 0.07156517 -0.0031394125 -0.075779624 -0.0655379 -0.18560088 -0.15298438 0.062206876 0.053988833 -0.13116968
boring 0.31000468 -0.35319152 0.10049734 0.25532788 -0.11333805 0.09954509 -0.056184016 0.40699413 0.020411868 0.12100104 -0.136655 0.01772377 0.11364006 -0.1044027 0.0076481337 0.037862875 -0.112753995 0.0828285 0.04201989 -0.453457 -0.001321832 -0.07230309 -0.21879052 -0.053942606 0.14897539 -0.09176597 0.1976155 0.19333693 0.33415028 0.008723702 0.059843253 0.14236923 -0.02165043 -0.025103655 -0.13315187 -0.2299236 0.25501418 -0.15098271 0.16736238 -0.11079883 0.04432459 -0.3965313 0.034361243 -0.13975842 0.4208814 0.18779993 0.21950594 -0.20839463 -0.020585066 0.061699744 -0.21325964 0.07888455 0.40349242 0.064022 0.11550422 -0.07651597 -0.14946023 -0.18137838 -0.16731946 -0.21506324 0.17221223 -0.2140337 0.10923816 0.011674984 0.14562719 0.05960622 -0.065341815 0.011836898 0.16738124 0.42931867 0.13424392 0.28834075 -0.021065235 0.05632061 0.12362569 -0.06936584 -0.14550269 0.11665008 0.14967056 0.13625942 -0.030945044 -0.25585374 -0.18624243 -0.05374803 0.005693453 0.23369221 0.051866904 -0.008766247 0.00875259 0.0669904 0.0046276283 0.074293114 0.004841129 -0.0900962 -0.06299071 -0.18285905 -0.1508713 0.068259366 0.054236863 -0.13707772
blessing 0.5346173 -0.6278419 0.17144562 0.45451927 -0.19981061 0.18784408 -0.07771898 0.71677893 0.03321679 0.22626631 -0.22334364 0.042227346 0.19589975 -0.18612288 0.01296955 0.066711746 -0.2208707 0.1465981 0.07692591 -0.77602744 0.0010123464 -0.14906293 -0.39992353 -0.08788636 0.27882913 -0.14009996 0.34140372 0.33131492 0.57974035 -0.0096147135 0.11963022 0.24367516 -0.015895968 -0.04326295 -0.23396185 -0.42387673 0.44904065 -0.25937095 0.29466054 -0.18886936 0.09966207 -0.6994527 0.07770967 -0.23547173 0.74047434 0.3434761 0.39094633 -0.3492976 -0.025141422 0.12216238 -0.38809174 0.16628249 0.7296358 0.09461337 0.19761956 -0.12321082 -0.2808131 -0.29832667 -0.28711382 -0.36741072 0.31010064 -0.37583217 0.1890216 0.01983986 0.2436426 0.09947267 -0.11078648 0.031221738 0.29523742 0.762034 0.2400271 0.49359107 -0.04190312 0.11395897 0.20808218 -0.10697072 -0.266801 0.21593286 0.26146477 0.23262024 -0.036010157 -0.44317985 -0.31416687 -0.09624008 0.019563446 0.41136494 0.086565234 -0.015274623 0.025521468 0.111048594 0.016682345 0.12266948 -0.009860562 -0.13432717 -0.11222585 -0.33411816 -0.2617753 0.111457296 0.081662074 -0.2281122
fine 0.2752846 -0.3131348 0.07638349 0.22590022 -0.098354444 0.090804145 -0.047554646 0.35534635 0.028282516 0.11221354 -0.11927722 0.02257732 0.09372334 -0.09648535 0.0078059295 0.032019313 -0.10632788 0.07296241 0.039299466 -0.39287814 -0.00404031 -0.062086586 -0.1906243 -0.0454367 0.13304381 -0.07697985 0.17832792 0.16581906 0.29246747 0.007935361 0.053045854 0.113239884 -0.0175635 -0.019802125 -0.121879995 -0.20399712 0.21876161 -0.13091645 0.14576101 -0.09020224 0.03903542 -0.35097408 0.027547937 -0.12395279 0.37936532 0.16638386 0.19236757 -0.18340552 -0.012443551 0.050503403 -0.18463509 0.074651696 0.36088783 0.051534653 0.105481245 -0.062229097 -0.13638006 -0.15903492 -0.14628638 -0.18967745 0.1527822 -0.18409596 0.09480993 0.012907051 0.12216542 0.05996994 -0.05810414 0.011132234 0.14154734 0.3847488 0.12275102 0.2625096 -0.019032484 0.05173344 0.10706954 -0.058942843 -0.12003145 0.10545606 0.13316418 0.11395749 -0.018137079 -0.22526146 -0.163048 -0.046525855 0.006901509 0.2048928 0.045664698 -0.011822743 0.011699898 0.054772798 0.011877671 0.066731855 -0.00058283954 -0.073592596 -0.06340426 -0.16775629 -0.13417336 0.062930755 0.047239702 -0.11537067
worst 0.48108235 -0.54343915 0.14034474 0.40122986 -0.17317924 0.14915565 -0.08966112 0.639531 0.042287234 0.19229935 -0.20989971 0.03923885 0.17176396 -0.16870068 0.009198674 0.064236775 -0.17825411 0.12970048 0.0642727 -0.7014891 -0.0038651924 -0.10675803 -0.34726483 -0.074219696 0.23623194 -0.13372783 0.3119531 0.29877454 0.52239215 0.0072361697 0.10067151 0.2058547 -0.027171647 -0.041929778 -0.21110955 -0.36965185 0.3857985 -0.22358559 0.26070124 -0.15821478 0.07182079 -0.62401867 0.049619015 -0.20820925 0.6672424 0.29314497 0.342541 -0.32151544 -0.033155434 0.08854583 -0.33444318 0.13338543 0.63427573 0.08587056 0.18603803 -0.11290634 -0.23260413 -0.26870418 -0.25716776 -0.32624626 0.2638365 -0.33383134 0.17452422 0.0071548284 0.22495992 0.10555155 -0.0998802 0.019589053 0.25025818 0.6603919 0.19624062 0.45480862 -0.03688181 0.085696556 0.17948371 -0.10342762 -0.2098924 0.18766832 0.2213952 0.2062233 -0.037824187 -0.39841345 -0.27850705 -0.086368114 0.009474737 0.35313162 0.075787514 -0.024060696 0.019508054 0.10729581 0.004044946 0.10741762 0.007865439 -0.13443334 -0.09940258 -0.28233483 -0.2217397 0.096661754 0.08685414 -0.20221753
people 0.45852998 -0.5254641 0.13796759 0.3693297 -0.1662419 0.15396573 -0.0824896 0.60395706 0.033966836 0.1748604 -0.20106645 0.033670176 0.15921974 -0.15689759 0.010807778 0.053601503 -0.16914056 0.13340677 0.060947202 -0.6650549 -0.0048420993 -0.110453226 -0.3350656 -0.06895229 0.22796074 -0.13659158 0.2893746 0.28169012 0.48812696 0.00037083353 0.09991761 0.20417346 -0.024931617 -0.026500097 -0.20025627 -0.35254374 0.3722727 -0.21807092 0.25460485 -0.15572871 0.06568212 -0.5940615 0.052680895 -0.20254317 0.63322604 0.28332666 0.31924817 -0.30219203 -0.02807485 0.08830912 -0.32159027 0.12799533 0.60158604 0.09290657 0.17440605 -0.10334504 -0.22566445 -0.25926197 -0.24184196 -0.31005612 0.25282964 -0.3117391 0.1566208 0.01452608 0.21586955 0.092422694 -0.10562017 0.017498368 0.24537934 0.6361826 0.19828828 0.42970243 -0.035825856 0.08401629 0.17449321 -0.10383421 -0.2055984 0.17669496 0.21443409 0.1961066 -0.04035014 -0.36715776 -0.26486182 -0.07624596 0.013810357 0.34123513 0.06778765 -0.02486555 0.015162977 0.09849714 0.009928153 0.11151049 -0.0033401225 -0.1288129 -0.09431161 -0.2716771 -0.22302508 0.09830735 0.082020834 -0.19757119
sucks 0.4363593 -0.50109625 0.13309026 0.35952014 -0.15197961 0.14382182 -0.07734921 0.57966447 0.032230992 0.17411324 -0.19111766 0.033278454 0.15487471 -0.14568797 0.012373161 0.051642235 -0.1606426 0.11705153 0.056000542 -0.6370375 -0.0042658094 -0.09740301 -0.3194977 -0.067731366 0.22109352 -0.12242547 0.284887 0.2668537 0.4770039 0.0035707676 0.09361492 0.19616139 -0.032656465 -0.028803617 -0.19088207 -0.33024216 0.36096346 -0.20685817 0.24178381 -0.15429105 0.06291779 -0.56815046 0.0460479 -0.193783 0.597784 0.27283457 0.31552005 -0.29017186 -0.024624733 0.09258603 -0.30255285 0.121371046 0.57663167 0.079517365 0.1623815 -0.09973032 -0.22007701 -0.245926 -0.22885455 -0.29838505 0.24321812 -0.30150306 0.15608826 0.009301926 0.20228279 0.088022485 -0.094920486 0.020181838 0.22964166 0.60370725 0.18795542 0.41255412 -0.033433553 0.08505494 0.16260752 -0.096048795 -0.20023116 0.16893387 0.20215201 0.18704486 -0.03606871 -0.35449165 -0.25455773 -0.06573515 0.009830796 0.32285 0.07279395 -0.02041992 0.012529163 0.09496653 0.012836082 0.10504216 -0.0013571732 -0.124952085 -0.08591045 -0.25565335 -0.20845929 0.08969815 0.067952335 -0.18728931
girl 0.33943865 -0.386587 0.09494023 0.27127272 -0.11530475 0.10800475 -0.0541237 0.4379865 0.031026985 0.1387427 -0.13911048 0.01919796 0.11407156 -0.10913095 0.008841638 0.040529907 -0.123411715 0.087924406 0.04152735 -0.48973644 0.0031197648 -0.073938556 -0.23434955 -0.048234373 0.16516659 -0.092862085 0.21435891 0.20954287 0.35427728 0.0012740919 0.06394618 0.14136861 -0.02187141 -0.022041228 -0.14882249 -0.24770279 0.26141256 -0.16041967 0.17579447 -0.1148765 0.041832894 -0.43036026 0.035354752 -0.14419553 0.45647967 0.20895529 0.23134555 -0.21464016 -0.024333354 0.063605 -0.2332899 0.09202876 0.44103596 0.06441157 0.13155845 -0.0810771 -0.16915593 -0.18850411 -0.17601141 -0.23207249 0.17994605 -0.23137163 0.12214893 0.0074688965 0.1536278 0.066435784 -0.07710071 0.01612077 0.17786938 0.4585112 0.14105777 0.31135634 -0.019874066 0.062922835 0.13009775 -0.07645432 -0.15026544 0.13231419 0.15295295 0.14059262 -0.027570669 -0.2673348 -0.19653721 -0.058243345 0.010025846 0.24399313 0.055106472 -0.013868132 0.012024899 0.07002969 0.0043538143 0.07199957 0.006431272 -0.09501245 -0.076858535 -0.19551446 -0.16203788 0.07533986 0.05674274 -0.13837129
think 0.41355726 -0.47575542 0.12256336 0.33699343 -0.15062006 0.1375164 -0.07680373 0.54788446 0.03956647 0.16344503 -0.18103468 0.031120198 0.1415007 -0.13421538 0.009318672 0.05334478 -0.15825902 0.11828728 0.060337767 -0.600857 -0.0063201287 -0.09908522 -0.2993381 -0.06433088 0.20375031 -0.1160553 0.2640467 0.25885028 0.43991995 -0.0015948007 0.085531406 0.1778866 -0.02949477 -0.02977394 -0.17812239 -0.31553683 0.33626717 -0.19870827 0.2279011 -0.13451439 0.057330657 -0.5364336 0.047215734 -0.18548714 0.5686795 0.26218343 0.28869766 -0.2704238 -0.030043682 0.085364945 -0.28838512 0.10716475 0.54677844 0.08029908 0.16550274 -0.09374432 -0.20084429 -0.23672068 -0.21551976 -0.28051725 0.2317022 -0.2826865 0.13833787 0.012315238 0.19096367 0.085857935 -0.0923265 0.021667512 0.21529469 0.5747851 0.17189883 0.38719556 -0.027449079 0.07548861 0.16073568 -0.093759775 -0.19281602 0.16541903 0.19115074 0.17376025 -0.03117671 -0.33991146 -0.24379893 -0.067341395 0.016783595 0.3018278 0.070121355 -0.0239753 0.015620634 0.08215424 0.012825282 0.097843826 -0.002540184 -0.11188882 -0.08495415 -0.24297465 -0.19549853 0.08508646 0.07325413 -0.17530872
thank 0.4333181 -0.49764028 0.1367176 0.3575364 -0.15362203 0.14641431 -0.071637645 0.5760489 0.023132788 0.17472447 -0.18315074 0.02512661 0.1511395 -0.15298513 -0.00050089293 0.052716672 -0.16667956 0.1233475 0.057366014 -0.6272886 0.0070942985 -0.116588734 -0.32064706 -0.07707289 0.22587347 -0.11227597 0.2761059 0.26774946 0.4594206 -0.005649523 0.08428116 0.18249746 -0.009966057 -0.039453566 -0.19120397 -0.34102258 0.35378116 -0.2137973 0.22954352 -0.15458536 0.079659455 -0.5554791 0.054360908 -0.19263092 0.5975664 0.27473962 0.31256127 -0.27472985 -0.021661393 0.092855096 -0.31179625 0.12778844 0.57799983 0.07293504 0.16304085 -0.0860031 -0.21459 -0.24000302 -0.23436022 -0.28128698 0.23807386 -0.29564357 0.14566916 0.019692753 0.18544711 0.07443934 -0.099974066 0.024802199 0.23923291 0.6117915 0.18079832 0.39453688 -0.030819975 0.08730807 0.156546 -0.091375455 -0.21317336 0.16827336 0.20841621 0.17383908 -0.026646988 -0.35397923 -0.24201459 -0.0829357 0.012326514 0.3254026 0.07195536 -0.012424177 0.016591154 0.09902967 0.0062936577 0.10594625 -0.012033598 -0.110748045 -0.092346326 -0.26566377 -0.22085938 0.07639806 0.07066288 -0.17956455
man 0.30778012 -0.35892192 0.09683993 0.257437 -0.10737496 0.10621479 -0.051398184 0.40701222 0.022660824 0.12489335 -0.13015305 0.024625532 0.1136771 -0.10022663 0.0070585217 0.036082912 -0.116196476 0.08673763 0.038421314 -0.44724655 0.0032540835 -0.07372612 -0.22793178 -0.05216377 0.15885809 -0.08764514 0.20341794 0.18925548 0.33682066 0.002855922 0.062308498 0.13525179 -0.016315006 -0.01888035 -0.13879997 -0.23408626 0.24846037 -0.14597939 0.1633109 -0.107621185 0.042397752 -0.4053022 0.035193168 -0.14175238 0.42648345 0.19289336 0.21432066 -0.20023125 -0.018843662 0.062280945 -0.21737836 0.08593631 0.41404825 0.05519706 0.12262751 -0.0694366 -0.1533712 -0.1821068 -0.16378275 -0.20789854 0.17559023 -0.2191207 0.110188395 0.0059476183 0.14109665 0.06657144 -0.065601 0.011659089 0.16607858 0.43355268 0.12878512 0.29099333 -0.028003065 0.0618934 0.11770102 -0.071463965 -0.14514714 0.12051811 0.14349781 0.1322797 -0.029041432 -0.2512095 -0.17566781 -0.051640358 0.004487845 0.23055013 0.051317666 -0.014541727 0.004990035 0.062469747 0.006411575 0.07003619 0.0006037326 -0.08781056 -0.06710465 -0.1890149 -0.14982292 0.0649727 0.056296166 -0.12965077
awesome 0.42831543 -0.48628384 0.12900364 0.3470803 -0.15245056 0.13510594 -0.07583025 0.5578839 0.03946844 0.16845158 -0.19166888 0.028887242 0.14788507 -0.1391936 0.010884185 0.04657288 -0.16057274 0.11922727 0.05151601 -0.6242442 -0.006350947 -0.100568585 -0.31141534 -0.06622693 0.20996308 -0.12358596 0.2723924 0.26484638 0.46157962 0.009145035 0.08410108 0.18272655 -0.029968007 -0.03018518 -0.18290082 -0.3228567 0.34554425 -0.20661579 0.23709045 -0.14532854 0.061463576 -0.5500125 0.04314472 -0.18904617 0.5818979 0.26430544 0.2992912 -0.28547445 -0.024755152 0.09018955 -0.29902104 0.11091995 0.5648056 0.08798563 0.1637504 -0.09338076 -0.21227337 -0.24751695 -0.21893063 -0.29470256 0.23470198 -0.29188493 0.14388707 0.017655006 0.19615723 0.084541716 -0.08937954 0.013857167 0.2262554 0.5851012 0.17869745 0.39864555 -0.027550928 0.08317425 0.16310334 -0.099268615 -0.19063799 0.16143519 0.20060083 0.18234026 -0.03817033 -0.3491834 -0.25259525 -0.06893631 0.009337293 0.31108305 0.0707868 -0.016200535 0.0077146725 0.09420399 0.0086448295 0.10395717 0.0010519366 -0.11535893 -0.097855434 -0.2503084 -0.19937782 0.09329846 0.06947828 -0.181602
change 0.50072235 -0.5647184 0.15693627 0.4113031 -0.17809284 0.17136115 -0.091000274 0.6626616 0.035940796 0.19532813 -0.21449918 0.032731414 0.16922395 -0.17223127 0.016638285 0.06534667 -0.18573144 0.13405849 0.06875643 -0.73029864 0.00040813553 -0.11454176 -0.36569798 -0.078012586 0.25497872 -0.14459668 0.3208028 0.29779226 0.53979486 0.007988939 0.099312544 0.21493052 -0.03821989 -0.03303888 -0.21382049 -0.3829972 0.40236023 -0.24341767 0.27475968 -0.17704968 0.07970105 -0.6402311 0.051918592 -0.22895114 0.687012 0.30738264 0.3570904 -0.325097 -0.02496618 0.10780309 -0.33957076 0.13672261 0.650727 0.10256317 0.1797746 -0.113116674 -0.25621805 -0.27712733 -0.26719972 -0.3317151 0.27210522 -0.3407472 0.16350606 0.013982398 0.23248154 0.10419469 -0.10521027 0.016505834 0.2699489 0.6930708 0.21430591 0.46070665 -0.033447716 0.0947612 0.18798594 -0.10987844 -0.22196987 0.19987577 0.24119544 0.21268937 -0.046150837 -0.3941625 -0.29212737 -0.072821826 0.020151926 0.35926828 0.07592925 -0.023336215 0.02309509 0.095612966 0.0047140867 0.11099273 -0.005628119 -0.12673253 -0.098536156 -0.2889163 -0.23804608 0.10136069 0.08711452 -0.2076284
could 0.5631158 -0.6278131 0.17374623 0.45012912 -0.1977262 0.17873085 -0.099937744 0.7445021 0.042608317 0.2208622 -0.23341043 0.044264484 0.19881913 -0.18132229 0.010522931 0.06741384 -0.20978902 0.15905853 0.06974538 -0.8100911 -0.007630267 -0.13527702 -0.40685466 -0.086520515 0.26921397 -0.15477139 0.36051437 0.34559143 0.6033387 0.0030458118 0.11037418 0.24759561 -0.035198968 -0.031526055 -0.23327771 -0.42043537 0.45003778 -0.27509493 0.314006 -0.19454817 0.07733113 -0.72439796 0.05532097 -0.25367343 0.76770973 0.33983433 0.39498007 -0.36987522 -0.03666482 0.11214738 -0.3922499 0.15096974 0.72539634 0.10885486 0.21181834 -0.13283798 -0.27353463 -0.31636775 -0.2907711 -0.37295112 0.30170172 -0.39033797 0.1862226 0.008981829 0.26410758 0.10351987 -0.1284075 0.024503337 0.30019605 0.7748771 0.23588772 0.51930296 -0.036073294 0.110281505 0.20570034 -0.121729136 -0.26095554 0.21384957 0.26937494 0.23600683 -0.04744972 -0.45099333 -0.32183078 -0.08811334 0.025805112 0.41215837 0.08041454 -0.026208412 0.018910192 0.111304365 0.007936252 0.13047524 0.0071143545 -0.15073296 -0.12161185 -0.330771 -0.2742508 0.121306576 0.094928734 -0.23613898
stressed 0.3399735 -0.39535517 0.101977676 0.27698475 -0.118435584 0.1136732 -0.059809495 0.45696485 0.027452385 0.13781784 -0.14996214 0.024428422 0.11904366 -0.11626242 0.005566637 0.0420588 -0.13005736 0.09334684 0.041895825 -0.49742553 0.0005445654 -0.08255724 -0.24187793 -0.053466987 0.16573095 -0.095401414 0.21688563 0.2091287 0.37407458 0.0035610502 0.07154212 0.14965561 -0.026529066 -0.027946873 -0.1453383 -0.2628397 0.275088 -0.16523139 0.1909334 -0.11380902 0.045572422 -0.4481012 0.043306466 -0.14989927 0.4726271 0.2149624 0.23681003 -0.22256784 -0.020941822 0.06729186 -0.2423753 0.088433236 0.4581247 0.06550605 0.13936046 -0.07552206 -0.17600815 -0.1963989 -0.18207426 -0.23368616 0.19172329 -0.23701166 0.11727773 0.0126118995 0.15965562 0.071251616 -0.07954959 0.013830882 0.1856119 0.47620475 0.14406419 0.3261151 -0.024992362 0.06484944 0.13526197 -0.07169447 -0.15485506 0.1289861 0.16307503 0.14444982 -0.02761025 -0.2833454 -0.20031482 -0.061820712 0.010962708 0.25893614 0.05605251 -0.013935317 0.01145936 0.072473735 0.0076541193 0.08148741 0.002171301 -0.093319185 -0.06886285 -0.20838776 -0.1626256 0.077109225 0.06237446 -0.14392847
ti 0.5647948 -0.6564805 0.1934934 0.46498546 -0.20478813 0.1747895 -0.12298463 0.77482986 0.03494116 0.23027468 -0.25087592 0.057091247 0.20743321 -0.17826384 0.031459607 0.08296973 -0.20075576 0.1730593 0.09576119 -0.85414433 -0.0068508573 -0.14827754 -0.4177754 -0.088602066 0.28036427 -0.18402098 0.3744823 0.35109985 0.61748123 0.00074884645 0.10790154 0.25614247 -0.04779751 -0.052462764 -0.25021517 -0.4393971 0.44241363 -0.27442354 0.31297323 -0.18006323 0.10254525 -0.7408061 0.08256912 -0.25897285 0.77916867 0.36231735 0.39688808 -0.3870133 -0.024939436 0.120360486 -0.39051002 0.15711781 0.7541463 0.12370119 0.20355533 -0.1300991 -0.27182084 -0.3433689 -0.2964156 -0.3797651 0.3332567 -0.41156578 0.18914492 0.005320363 0.25343964 0.10992041 -0.111502536 0.040733844 0.28921214 0.79248774 0.23243608 0.5467273 -0.040086377 0.12515526 0.2170899 -0.142977 -0.25141725 0.22511765 0.2636237 0.24674596 -0.047536206 -0.44372487 -0.3320387 -0.090226375 0.016428277 0.42920202 0.09215183 -0.032660045 0.03228074 0.10750491 0.011264181 0.14854462 0.00072155386 -0.16852272 -0.13812758 -0.319044 -0.279016 0.13846958 0.10458092 -0.25894517
live 0.36713257 -0.41447854 0.11258182 0.29641274 -0.12893786 0.11602737 -0.059004866 0.4834253 0.02297933 0.14201641 -0.15940848 0.02838631 0.12980038 -0.124249585 0.006168216 0.038321506 -0.1402533 0.10385942 0.047915403 -0.5337061 -0.006743646 -0.08137749 -0.26153463 -0.058859173 0.1822603 -0.10995679 0.23596416 0.2272477 0.39347053 0.006064149 0.079554886 0.1623502 -0.02352111 -0.026386388 -0.15342331 -0.27504495 0.29786322 -0.1748348 0.19550155 -0.12113797 0.059407104 -0.47437662 0.03873236 -0.16438022 0.501303 0.22807369 0.26188165 -0.23416741 -0.02628274 0.074105725 -0.25666398 0.10275223 0.4784494 0.06919249 0.13842882 -0.081463166 -0.18197542 -0.20259756 -0.19354004 -0.24576797 0.20633735 -0.25233385 0.12687556 0.012016023 0.16893852 0.075171374 -0.076294325 0.0115741715 0.19269942 0.5027878 0.15681036 0.3426177 -0.030729556 0.07141169 0.14350793 -0.084821686 -0.16586374 0.14069597 0.17436258 0.15373705 -0.03584821 -0.29547262 -0.21067788 -0.063131034 0.011868987 0.2683531 0.053884547 -0.019025415 0.009377303 0.080021076 0.007622082 0.08913076 0.0058744936 -0.09707669 -0.07158291 -0.21393959 -0.17865987 0.077104725 0.059042074 -0.15454374
one 0.4821056 -0.5435708 0.14070012 0.39081478 -0.17431192 0.15707573 -0.08205348 0.6314605 0.03992877 0.19286467 -0.21480986 0.029964792 0.17154008 -0.16215947 0.016279567 0.05416881 -0.18186389 0.13433577 0.06588231 -0.70424044 -0.0071952646 -0.11683664 -0.35109702 -0.07655951 0.23741284 -0.13973619 0.3092642 0.29634702 0.5195486 0.007112341 0.10524621 0.21337362 -0.034176458 -0.02880241 -0.2032855 -0.36575562 0.38526526 -0.2347524 0.2646183 -0.1641095 0.06484526 -0.6141691 0.050942615 -0.21692908 0.6588308 0.30060676 0.33746213 -0.3122462 -0.031903703 0.0925892 -0.33652836 0.13057786 0.6357405 0.09357609 0.18023542 -0.10816837 -0.24389334 -0.26542416 -0.24929385 -0.3247553 0.26887298 -0.32826006 0.16862197 0.015925424 0.22484833 0.09677112 -0.10413162 0.015424096 0.24849099 0.6629874 0.20070061 0.45243052 -0.0380354 0.08608024 0.17844021 -0.110861436 -0.21645364 0.18360513 0.22633351 0.20605236 -0.04124575 -0.39270282 -0.28461808 -0.07718296 0.016348805 0.3583233 0.0809568 -0.028290566 0.015081325 0.099279016 0.015191763 0.11053154 0.00021223501 -0.1315327 -0.100906566 -0.2815824 -0.22905919 0.10058595 0.080177836 -0.20841436
depressed 0.4168485 -0.48053172 0.1306634 0.3401527 -0.1446619 0.13990262 -0.06710216 0.5499068 0.038679533 0.17097807 -0.18770623 0.032083586 0.15036394 -0.13719116 0.0149786 0.049122434 -0.16051681 0.111724325 0.05785007 -0.6167133 -0.004073827 -0.09977163 -0.30530694 -0.06501041 0.20848559 -0.11778044 0.2658277 0.26356983 0.45372236 0.005832076 0.089386374 0.18368535 -0.02469764 -0.026596282 -0.1792247 -0.32129073 0.34224236 -0.19941688 0.22903448 -0.1366422 0.059371404 -0.54304034 0.046794686 -0.18910176 0.57764405 0.26733884 0.29286882 -0.27481386 -0.02568752 0.08753538 -0.28923604 0.11312759 0.55142176 0.07867702 0.16212437 -0.09936464 -0.20607291 -0.24129812 -0.22165896 -0.28737393 0.23234083 -0.29400343 0.14542913 0.018854953 0.19162455 0.08549247 -0.090205215 0.019462034 0.22047414 0.5809537 0.1788878 0.3917193 -0.03284577 0.08299136 0.16215378 -0.093040764 -0.18750007 0.16463175 0.19913398 0.17678276 -0.039083347 -0.34511194 -0.24765739 -0.06463198 0.014649491 0.30843112 0.060648397 -0.02371199 0.012865313 0.091263734 0.011939784 0.09167317 0.0055641546 -0.11432176 -0.09321615 -0.25587064 -0.19751751 0.086168714 0.065795206 -0.18123893
ame 0.5184431 -0.59337384 0.17626415 0.41981405 -0.16996484 0.1781746 -0.109266326 0.70224553 0.057301518 0.2201228 -0.22107592 0.038779672 0.1795054 -0.16407773 0.032297127 0.06483461 -0.19763333 0.16496207 0.06892537 -0.7666277 -0.0057403482 -0.13975489 -0.37873575 -0.09618562 0.25773415 -0.1587113 0.32096535 0.3102033 0.57752633 -0.015562034 0.10212341 0.23740059 -0.020315077 -0.020170793 -0.24416918 -0.408312 0.41461182 -0.2560567 0.30327198 -0.19147928 0.08853662 -0.6633002 0.07350105 -0.22156395 0.71849954 0.32061478 0.36871645 -0.3503633 -0.032935146 0.11971553 -0.37739956 0.1382536 0.7085834 0.09551132 0.19443202 -0.1353473 -0.27903455 -0.31095016 -0.27780694 -0.35764024 0.27917865 -0.34302455 0.16923079 0.0028450347 0.24532367 0.107886694 -0.12437631 0.016889283 0.26555502 0.7375809 0.2063832 0.49939188 -0.03537061 0.09814755 0.20218566 -0.111151956 -0.24170388 0.21245842 0.25575697 0.21806192 -0.034926105 -0.4176978 -0.3038416 -0.07428568 0.030709768 0.40418574 0.082534924 -0.022529513 0.0071955114 0.11504788 0.026673442 0.12034762 -0.0053589526 -0.1456817 -0.121269315 -0.2960354 -0.250559 0.11423147 0.100301534 -0.23822856
perfect 0.4009268 -0.4570405 0.12406682 0.32713425 -0.1398466 0.13805145 -0.0689121 0.5362601 0.036830463 0.16258635 -0.17090847 0.034116562 0.14291446 -0.13874735 0.0144227445 0.052046392 -0.14627512 0.11204146 0.048187777 -0.5825192 -0.004373414 -0.096053936 -0.28344458 -0.059985284 0.20002124 -0.11225737 0.26253152 0.24681927 0.4368042 -0.0017304088 0.08864724 0.17666656 -0.021980973 -0.031100873 -0.17718035 -0.30868924 0.32861066 -0.19004619 0.22557198 -0.13748834 0.059159722 -0.51669425 0.044189326 -0.17745233 0.5538042 0.25524038 0.28461927 -0.26122662 -0.027975362 0.082545206 -0.27761775 0.104398265 0.5327731 0.07639149 0.15318803 -0.087609924 -0.20027441 -0.23057659 -0.20672922 -0.27684027 0.2188997 -0.27448642 0.13720474 0.009353261 0.18364854 0.07650601 -0.0921954 0.01738451 0.21558863 0.5558277 0.16859394 0.38020664 -0.033135302 0.079401575 0.1554152 -0.08981045 -0.18824741 0.15467188 0.18843228 0.1732992 -0.03692326 -0.33053532 -0.23900034 -0.067219235 0.016479434 0.2971274 0.06790727 -0.015644377 0.009217122 0.08026392 0.013747323 0.099675655 -0.00013325502 -0.11157448 -0.07908776 -0.2391032 -0.19627556 0.08519129 0.069528684 -0.16919708
feeling 0.3012059 -0.33706838 0.08591993 0.24356031 -0.11035962 0.09577174 -0.05542448 0.39260268 0.031344112 0.113038205 -0.12640445 0.017240403 0.09975843 -0.098223284 0.005642844 0.028909704 -0.1145196 0.07938891 0.0411627 -0.43132028 -0.007142126 -0.074482635 -0.20915224 -0.047229327 0.15287305 -0.08898712 0.19392592 0.18361284 0.31831804 0.0032060908 0.06358044 0.12753285 -0.021131614 -0.025019426 -0.12964204 -0.23091204 0.23563875 -0.1467302 0.16022548 -0.095942676 0.043862686 -0.39264956 0.037375968 -0.13614582 0.41180545 0.18232869 0.2091926 -0.19398756 -0.021113982 0.055362526 -0.2121203 0.082752004 0.39830017 0.062115148 0.12241037 -0.06870403 -0.1500904 -0.1711855 -0.1589308 -0.20842451 0.16995695 -0.2037498 0.09845858 0.014243829 0.13214765 0.06220805 -0.06631963 0.017792417 0.16061394 0.4102674 0.1225531 0.2835524 -0.023691062 0.062742375 0.11553287 -0.066938065 -0.1318147 0.11818144 0.14393443 0.12172991 -0.02937716 -0.24172847 -0.17271581 -0.044121157 0.012334725 0.22738531 0.041668963 -0.022178119 0.009380691 0.06102662 0.011933938 0.07350406 -0.005083102 -0.0802432 -0.06819568 -0.1814296 -0.13930413 0.06237419 0.054086935 -0.1275967
3 0.30357197 -0.3502788 0.088368036 0.24980466 -0.10734659 0.103860185 -0.05301916 0.40303817 0.023302345 0.12110086 -0.13421611 0.019898787 0.10367691 -0.101959586 0.009591893 0.03487832 -0.11604068 0.08237239 0.038601745 -0.44138 0.0033416757 -0.06852196 -0.21442194 -0.0446575 0.1540527 -0.09086608 0.1884677 0.18450059 0.32362458 0.0007955211 0.05821993 0.12803003 -0.019701788 -0.024827907 -0.13059103 -0.23529287 0.24647397 -0.14345892 0.17174672 -0.10131336 0.044864595 -0.3962288 0.033114444 -0.1389065 0.42355582 0.19534287 0.21633965 -0.2026914 -0.018655315 0.05573147 -0.2060067 0.07714569 0.4043021 0.061907187 0.12122554 -0.07169752 -0.152613 -0.17052615 -0.1573218 -0.20941979 0.17223667 -0.2093963 0.10060559 0.011427214 0.14174852 0.06560873 -0.06528935 0.015358716 0.1589926 0.4198813 0.13167657 0.28932202 -0.021444725 0.055756807 0.11585316 -0.06288084 -0.13868071 0.124110274 0.13937005 0.12418245 -0.029277075 -0.2510956 -0.17631318 -0.052541196 0.0053195544 0.22026038 0.046586778 -0.01084861 0.0119041 0.064376034 0.009277192 0.06870465 -0.0046061357 -0.08543138 -0.06579915 -0.182112 -0.14627396 0.06366206 0.053275928 -0.12822281
amazing 0.39996403 -0.45880303 0.12357607 0.33227295 -0.14722976 0.1303392 -0.07121666 0.5249585 0.03384801 0.15405776 -0.17297088 0.028530732 0.13929948 -0.13598421 0.014653952 0.046660475 -0.15077174 0.10901648 0.05798196 -0.58166707 0.0008211538 -0.096339434 -0.28646493 -0.05792981 0.19566225 -0.11958633 0.25055206 0.2430232 0.42952436 0.0018210956 0.08644578 0.17402983 -0.022361927 -0.028376943 -0.1693726 -0.30809525 0.318282 -0.19004157 0.2252867 -0.13304949 0.057943698 -0.52086806 0.044389732 -0.17625666 0.551184 0.24710037 0.28287873 -0.26452062 -0.030113079 0.0804512 -0.2741561 0.103289306 0.53312325 0.07697747 0.15283482 -0.09009581 -0.19539694 -0.22845085 -0.20700571 -0.27315232 0.2251883 -0.28107083 0.14006354 0.012264068 0.17827573 0.080843285 -0.09408586 0.0130351465 0.21369 0.5499688 0.17547415 0.37694523 -0.03110196 0.0799492 0.14812973 -0.08958644 -0.1799447 0.15818346 0.18815677 0.16955866 -0.028796263 -0.3219947 -0.23539613 -0.066094115 0.01728067 0.29446736 0.062242683 -0.016897827 0.013472246 0.083325826 0.0063774474 0.096448965 0.0043064537 -0.11190923 -0.07913553 -0.24397457 -0.18961269 0.078456625 0.06240775 -0.16860062
things 0.553207 -0.6363275 0.17453818 0.45515636 -0.20158805 0.18302426 -0.09928361 0.73291516 0.04725115 0.22316523 -0.23678955 0.04082732 0.19541888 -0.18683621 0.018573094 0.06148835 -0.20832855 0.1544393 0.07493886 -0.81580585 -0.009827176 -0.13216454 -0.39499992 -0.09145181 0.27584055 -0.1663505 0.35923052 0.34279764 0.5948699 0.0042329803 0.118311234 0.24893287 -0.03186358 -0.03841189 -0.23763438 -0.4225358 0.45347303 -0.2667632 0.3006777 -0.18871263 0.07799351 -0.72215486 0.06827217 -0.24400161 0.7669962 0.3419731 0.39493212 -0.3581222 -0.032245643 0.11334247 -0.38994196 0.14617723 0.7330096 0.10670163 0.21686572 -0.13236283 -0.28067613 -0.31443122 -0.28907058 -0.37313563 0.30822343 -0.3849646 0.18990006 0.008480936 0.25909567 0.11135406 -0.12597099 0.026097866 0.295262 0.77331173 0.24053596 0.5225649 -0.038786538 0.1019913 0.20645468 -0.12338447 -0.25699997 0.21736263 0.26290682 0.2366853 -0.046371784 -0.44957733 -0.31764522 -0.08684213 0.022242695 0.41583577 0.08524946 -0.027398583 0.020481018 0.11799872 0.011368977 0.13418901 -0.004778157 -0.15677966 -0.11262141 -0.33444637 -0.27103424 0.12088905 0.0956458 -0.24046667
beautiful 0.429284 -0.4941567 0.13348062 0.35143197 -0.15945178 0.14631563 -0.075961426 0.57016796 0.031015446 0.17074393 -0.19136868 0.035918552 0.15092075 -0.14512216 0.008397691 0.048586663 -0.15791605 0.11951728 0.059382163 -0.63514215 -1.3669685e-05 -0.10627005 -0.31409547 -0.06608381 0.21953979 -0.12841386 0.27862778 0.2715554 0.4647108 -0.0026759806 0.08711962 0.19322006 -0.022632426 -0.026564604 -0.18626295 -0.3266074 0.35346153 -0.21297994 0.23527075 -0.14234255 0.068898715 -0.5627146 0.050457235 -0.19434401 0.596949 0.26609933 0.30870914 -0.28696653 -0.023983302 0.09052075 -0.3016038 0.11712807 0.5696669 0.085361615 0.16642931 -0.09897711 -0.22049564 -0.24347615 -0.22509879 -0.28993624 0.23942274 -0.30176634 0.14670563 0.015144513 0.19537097 0.091391 -0.0943222 0.02383063 0.22679466 0.6040007 0.18195298 0.40087277 -0.02981933 0.078610785 0.1630308 -0.10038401 -0.19830857 0.17196132 0.20799387 0.18484502 -0.032346547 -0.3485124 -0.24782558 -0.06693375 0.010979097 0.3232159 0.071241796 -0.017885529 0.008575528 0.08895104 0.006212213 0.096776605 0.0045984564 -0.11298544 -0.08802246 -0.2584483 -0.20506828 0.09054741 0.07635116 -0.18757199
pretty 0.3349383 -0.3844241 0.096163385 0.2729293 -0.117975354 0.1062518 -0.058501523 0.44841766 0.03298936 0.13064793 -0.15229586 0.023134874 0.11389357 -0.11544803 0.006597367 0.03935032 -0.12655209 0.089677244 0.043445364 -0.48961738 -0.0029483554 -0.07518898 -0.24304844 -0.058868136 0.16160208 -0.09368302 0.2144782 0.2080059 0.35843188 0.0041130246 0.07336427 0.14162451 -0.025080351 -0.021815015 -0.14829652 -0.25709724 0.26779094 -0.16750701 0.18743916 -0.11197126 0.05235674 -0.43686077 0.040745944 -0.14491817 0.46971813 0.20655319 0.2343509 -0.21830292 -0.02636595 0.06429155 -0.23073569 0.08572373 0.447514 0.067373425 0.13520949 -0.07640967 -0.16385017 -0.18970215 -0.18085083 -0.23133478 0.19096778 -0.23446181 0.11727046 0.005505628 0.15536122 0.06960885 -0.07377048 0.012130149 0.173202 0.4672871 0.14606236 0.31990248 -0.022033377 0.06723583 0.12795801 -0.077388994 -0.15324949 0.13600086 0.15760577 0.13632289 -0.02537118 -0.2772598 -0.19921614 -0.04975926 0.0068004187 0.25314406 0.053257164 -0.020863911 0.008152786 0.0699807 0.002629121 0.080423035 -0.0016656945 -0.09586735 -0.07071924 -0.20472325 -0.16196531 0.07177107 0.058582656 -0.14099494
way 0.43759665 -0.50246626 0.13268968 0.356422 -0.1620702 0.14996241 -0.0732084 0.5790974 0.03783725 0.17020161 -0.18923117 0.035192274 0.15697971 -0.1498099 0.01100106 0.046031393 -0.16480131 0.12385014 0.059327696 -0.6396084 -0.004543355 -0.099435195 -0.31890196 -0.071542665 0.22172685 -0.13091095 0.27989984 0.2710479 0.47227094 0.008437797 0.08959752 0.19236068 -0.023712574 -0.031897902 -0.19240054 -0.33832425 0.36045286 -0.21311949 0.24579535 -0.1531489 0.057304252 -0.5746402 0.045871507 -0.20287684 0.6091043 0.27676305 0.3100672 -0.29246867 -0.032152906 0.093074664 -0.3114852 0.12175892 0.58166456 0.08255161 0.17124158 -0.10480199 -0.22260176 -0.25015396 -0.22626346 -0.29503596 0.24753171 -0.30035633 0.15665369 0.017697204 0.20737702 0.08633954 -0.0925317 0.014458394 0.23615071 0.6112894 0.18696149 0.41662416 -0.030944444 0.084643565 0.17239796 -0.10287428 -0.205566 0.1753934 0.21348964 0.17853966 -0.03706357 -0.36265486 -0.25619105 -0.073424235 0.01606581 0.3245856 0.06933622 -0.023868086 0.0075203315 0.094342686 0.016303394 0.0991806 0.0016073731 -0.121146165 -0.090774454 -0.26039514 -0.20979905 0.08967034 0.07204462 -0.18517008
nothing 0.434674 -0.49870607 0.13277882 0.34898296 -0.15411851 0.14646678 -0.0799597 0.5736841 0.03108382 0.17162286 -0.1871848 0.036092024 0.15620117 -0.14809828 0.0073864837 0.047674865 -0.15752263 0.1259253 0.055314407 -0.6323572 -0.004442756 -0.10059381 -0.30626872 -0.06841251 0.21794607 -0.12083584 0.27709422 0.26533195 0.46508646 0.001099184 0.0890768 0.19011287 -0.02473818 -0.024973923 -0.18966421 -0.3278155 0.35424963 -0.21247166 0.24074897 -0.148776 0.064172596 -0.56085473 0.0507813 -0.18722294 0.60012954 0.26715633 0.3089817 -0.27716377 -0.030748975 0.08358271 -0.29927638 0.11724901 0.57017434 0.07851108 0.1710613 -0.104106165 -0.2116781 -0.24892485 -0.2320926 -0.29777282 0.2362125 -0.2986254 0.14685747 0.01297723 0.20322089 0.090884484 -0.0961696 0.019425675 0.2237916 0.6024737 0.18490648 0.40266138 -0.026669407 0.07888123 0.1686668 -0.09912508 -0.19410503 0.16696015 0.21013081 0.18170609 -0.036451604 -0.35296887 -0.24943781 -0.074711174 0.016943362 0.31715897 0.06836807 -0.016673615 0.010845336 0.09511187 0.0148477815 0.09616147 0.0042376034 -0.12376696 -0.08888765 -0.25748247 -0.21116689 0.08890305 0.07141598 -0.18145484
damn 0.23561178 -0.26790264 0.06601716 0.19308966 -0.078971274 0.073026076 -0.037909627 0.3074478 0.02276231 0.09390059 -0.103519134 0.018114159 0.08470962 -0.07289997 0.0013105014 0.02949683 -0.081878275 0.061871387 0.03408141 -0.33942387 -0.0026995507 -0.056804866 -0.16425468 -0.035760548 0.112028986 -0.06855331 0.14413367 0.13843803 0.24436009 0.0055594933 0.0433812 0.09784085 -0.018907541 -0.018580116 -0.09615926 -0.17191806 0.1838257 -0.113350905 0.1219953 -0.08145455 0.034424163 -0.30462608 0.02762955 -0.10057519 0.32186517 0.14706112 0.16498703 -0.15250686 -0.010118912 0.04733851 -0.16487657 0.0672253 0.30572408 0.049420413 0.09233527 -0.054015324 -0.11226148 -0.13671705 -0.122675695 -0.16222923 0.13130717 -0.15620346 0.0822998 0.005983718 0.10952115 0.048530374 -0.048499376 0.015591888 0.12318712 0.3263288 0.09599537 0.21950606 -0.020595895 0.039796714 0.08783277 -0.048451476 -0.101241186 0.09492619 0.11250578 0.096154965 -0.016903602 -0.19460066 -0.13345954 -0.03923015 0.00873166 0.17718509 0.03459594 -0.013959241 0.0030728977 0.04720716 0.00888092 0.056382135 0.0050968733 -0.06230541 -0.046077278 -0.13769916 -0.108690724 0.052355696 0.036841754 -0.096469305
can 0.5661327 -0.6521602 0.17512527 0.46477047 -0.21448448 0.18705828 -0.10890691 0.7464159 0.040318336 0.22677967 -0.25097653 0.050597712 0.22172354 -0.19685328 0.01220392 0.071557395 -0.22388493 0.18167205 0.065690786 -0.8458696 0.0039549354 -0.13423906 -0.41490766 -0.10107474 0.29097784 -0.16176914 0.37719744 0.36558935 0.6238262 -0.0077215307 0.14251468 0.24793121 -0.042585205 -0.032658264 -0.23901728 -0.44539428 0.48034725 -0.2691973 0.30033445 -0.21163084 0.084630124 -0.7646379 0.07656045 -0.24284872 0.78951126 0.3622658 0.39667964 -0.36023736 -0.04273024 0.10021621 -0.39040264 0.15696143 0.75988007 0.12500614 0.22990486 -0.12843332 -0.26873964 -0.33276564 -0.3138973 -0.37479493 0.33249125 -0.3952872 0.2055923 0.0038360863 0.25221038 0.11918563 -0.14376777 0.009768675 0.31112182 0.7972775 0.23868363 0.5213093 -0.043870203 0.119570754 0.21016395 -0.13429114 -0.27271536 0.21578957 0.29228958 0.25066563 -0.037084613 -0.47779864 -0.33912477 -0.0871345 0.003879278 0.40619415 0.096592315 -0.010665689 -0.002189041 0.1342545 0.03272254 0.1201851 0.0025192008 -0.1535327 -0.10591741 -0.3602812 -0.26880968 0.11885244 0.096215025 -0.23421723
not 0.5781768 -0.69217235 0.17187747 0.47960415 -0.22580844 0.19570592 -0.111194275 0.7734321 0.05823354 0.24881262 -0.2594717 0.06419779 0.20037505 -0.21180281 0.017958311 0.07390935 -0.22631118 0.17086767 0.09130891 -0.87654793 0.014227123 -0.1502465 -0.42179817 -0.09723774 0.31139576 -0.16932532 0.37324068 0.36491713 0.65615404 -0.007877533 0.13014117 0.27614546 -0.054475754 -0.0313017 -0.26926187 -0.45122963 0.47596356 -0.29367092 0.33816695 -0.22404066 0.080045156 -0.78431046 0.079541326 -0.26023057 0.8342918 0.37608168 0.4146012 -0.3889519 -0.030573864 0.11320811 -0.39520356 0.16233538 0.7997017 0.11577695 0.23261407 -0.11507119 -0.28184164 -0.31300604 -0.32377818 -0.39980927 0.31359318 -0.43250623 0.20848404 -0.0030818714 0.27540168 0.09821353 -0.14152884 0.02643034 0.3203043 0.8264998 0.26916826 0.56761014 -0.03854101 0.1242258 0.22980875 -0.13075969 -0.28018728 0.22910313 0.26667646 0.24016662 -0.05442394 -0.5037359 -0.3508782 -0.11112519 0.012130623 0.41227588 0.084825516 -0.03959897 0.0096911425 0.12881602 0.037027042 0.14851476 0.015403403 -0.17644735 -0.1126904 -0.34551743 -0.3010762 0.12062424 0.09650772 -0.25325805
ugly 0.26498556 -0.30554384 0.07744083 0.22230107 -0.09720903 0.08337584 -0.049349375 0.34806073 0.017748863 0.10266086 -0.11297089 0.01653033 0.088766895 -0.08782589 0.0030508628 0.026408639 -0.1043394 0.06933948 0.031735964 -0.3867572 -7.7139994e-05 -0.05818291 -0.19031933 -0.03979527 0.12970284 -0.0731333 0.17309985 0.15965478 0.28412306 0.006099607 0.059619598 0.11214666 -0.018255465 -0.015713127 -0.111289226 -0.19841364 0.21908438 -0.12493029 0.14407447 -0.08992388 0.035246532 -0.34499264 0.028160533 -0.11630843 0.3662004 0.16709125 0.18692757 -0.16939183 -0.011843587 0.055416618 -0.18228057 0.07237669 0.35617155 0.052956074 0.108772784 -0.06570324 -0.13342339 -0.15624654 -0.13567038 -0.18224008 0.1437999 -0.18007697 0.09801985 0.008609594 0.12344637 0.05051172 -0.061042275 0.0103275245 0.14035426 0.3704002 0.1137338 0.25094113 -0.020880332 0.05445099 0.10387319 -0.052985225 -0.12481008 0.106858164 0.12580861 0.10796824 -0.02295318 -0.21492828 -0.1526414 -0.040660392 0.0070737614 0.1955996 0.039360475 -0.018641246 0.01147541 0.060663216 0.005982194 0.05813866 -0.00068308396 -0.07561906 -0.055511475 -0.15485436 -0.12390738 0.0517721 0.04645244 -0.11294933
true 0.47550735 -0.53456837 0.14339575 0.39453003 -0.16597165 0.14891809 -0.07884322 0.621922 0.044155397 0.19635217 -0.21297315 0.026141582 0.16815889 -0.16390242 0.025465762 0.054382227 -0.18771116 0.1311607 0.06949522 -0.6896678 -0.008870514 -0.1092954 -0.34770596 -0.0756803 0.2272081 -0.14274265 0.30050814 0.29905236 0.50249803 -0.0018951626 0.107544504 0.20257345 -0.030728932 -0.036669686 -0.20166464 -0.35308713 0.3759658 -0.22388121 0.26426148 -0.16894624 0.0709838 -0.6094375 0.043653022 -0.20723918 0.6469641 0.2967248 0.3277457 -0.30673283 -0.035632312 0.09780121 -0.33548295 0.11090914 0.626613 0.08903286 0.17170036 -0.10826446 -0.22476089 -0.26421818 -0.23462 -0.31268632 0.2547711 -0.33960155 0.15894392 0.014456868 0.21976343 0.09731886 -0.09384789 0.0090720905 0.24528006 0.6478923 0.19374582 0.43869838 -0.043386474 0.08127272 0.17081356 -0.09434341 -0.20723344 0.19140899 0.22702076 0.19367687 -0.034482375 -0.38759205 -0.27880448 -0.070956156 0.009153462 0.34150994 0.071180165 -0.028320044 0.014608304 0.109815516 0.0066943686 0.103528015 -0.00017696274 -0.120209545 -0.09505933 -0.28132033 -0.21228287 0.09897134 0.07406643 -0.20888501
suck 0.28400615 -0.32659918 0.084487826 0.22565526 -0.098666675 0.092657335 -0.041534383 0.3718949 0.021698467 0.114098504 -0.12548995 0.018885065 0.10045657 -0.09207006 0.008789071 0.030695733 -0.10452087 0.07728674 0.038541548 -0.40776643 0.00029539643 -0.0673266 -0.20157553 -0.04924458 0.13979253 -0.079061724 0.18483628 0.17110223 0.30674908 0.0049971724 0.06356501 0.120926335 -0.016357899 -0.023137772 -0.12152968 -0.21666153 0.22369571 -0.13991116 0.14843264 -0.0977411 0.04335742 -0.36413306 0.03292396 -0.12840933 0.38642645 0.16883346 0.2019363 -0.18072233 -0.024373805 0.058183428 -0.19137867 0.07897016 0.36784807 0.04845599 0.113320924 -0.068682715 -0.13446759 -0.16109954 -0.14815448 -0.1846275 0.1619964 -0.19380338 0.10430332 0.007636263 0.12751047 0.05334726 -0.06060336 0.016674029 0.15063125 0.38660032 0.1240679 0.26295185 -0.019746901 0.05307597 0.10362429 -0.057387404 -0.12508962 0.10881787 0.13443188 0.11424946 -0.02319752 -0.23221508 -0.16377406 -0.043806147 0.008388081 0.21437424 0.042696282 -0.013040216 0.012450839 0.057604954 0.008884572 0.071239784 0.004414546 -0.08170048 -0.058532596 -0.1639552 -0.13784187 0.061053555 0.05036051 -0.12336273
haha 0.26137292 -0.2963356 0.07720864 0.20731653 -0.09616804 0.0800372 -0.04410118 0.33858088 0.026107628 0.09765388 -0.11406324 0.014598128 0.09269547 -0.08158142 0.0087220045 0.029871462 -0.09979451 0.075731315 0.03329228 -0.37020865 0.002415376 -0.06370161 -0.18487798 -0.040306896 0.12495504 -0.07665647 0.16196172 0.16129717 0.27804485 0.0012586275 0.055815518 0.109277464 -0.020986566 -0.016012656 -0.11472607 -0.19546857 0.20831853 -0.12570052 0.14386483 -0.090182036 0.04053875 -0.33187598 0.031801015 -0.11390159 0.35367277 0.1588147 0.17738134 -0.17237298 -0.01867754 0.04596274 -0.18107577 0.06989949 0.3355843 0.04804589 0.10306269 -0.055274356 -0.12926959 -0.14781311 -0.13816133 -0.17843452 0.14165297 -0.17928077 0.08902309 0.0059466856 0.11962136 0.057298686 -0.0596347 0.009768201 0.13243969 0.3520449 0.10952512 0.2373697 -0.019555151 0.050895482 0.10129892 -0.055416837 -0.11735446 0.09585574 0.12623446 0.10781621 -0.026568415 -0.2102767 -0.15379186 -0.044627342 0.011095952 0.18856765 0.045066085 -0.0072596413 0.009496086 0.056939803 0.0044442476 0.056771953 -0.0005331971 -0.0731947 -0.059297983 -0.15603311 -0.12111535 0.05135365 0.04538765 -0.10795499
wish 0.41087654 -0.47104812 0.12590046 0.34160358 -0.1481162 0.1423245 -0.077361 0.54030067 0.039290365 0.16166833 -0.17167485 0.028924627 0.13942932 -0.13167836 0.0168599 0.0503343 -0.15447207 0.11416374 0.04824263 -0.6029097 -0.010515706 -0.09552371 -0.29344603 -0.06268581 0.20714991 -0.12721792 0.264113 0.2575578 0.44234192 0.0016828257 0.080495596 0.18692243 -0.027183628 -0.024043268 -0.18304726 -0.30835724 0.33349234 -0.20333429 0.2268013 -0.1442879 0.05729287 -0.5330321 0.048213713 -0.19081317 0.5649108 0.2608828 0.2893962 -0.2733213 -0.021204092 0.08059192 -0.28590316 0.1113836 0.5423278 0.08514944 0.15089631 -0.09691359 -0.20097733 -0.23144196 -0.2144337 -0.27845803 0.22115424 -0.2831023 0.14055656 0.008380424 0.19445671 0.08157899 -0.09877888 0.024159715 0.22196059 0.57500327 0.1763427 0.38919306 -0.033981748 0.08022427 0.15608872 -0.09995071 -0.19310118 0.15689597 0.1965361 0.17169161 -0.037444513 -0.33682257 -0.23377235 -0.074080214 0.01884833 0.30908036 0.067004226 -0.017819015 0.009518671 0.0875539 0.018503413 0.099471234 -0.0057977755 -0.12008924 -0.07914243 -0.23810825 -0.19824535 0.08315453 0.077307925 -0.17753649
day 0.49839723 -0.579326 0.14899452 0.41270208 -0.18132064 0.16439062 -0.07910997 0.67095864 0.03995714 0.19811521 -0.22232579 0.04168273 0.17625064 -0.17393671 0.006908934 0.057154153 -0.18487689 0.14724408 0.06214335 -0.73651165 -0.0028867265 -0.12524106 -0.36495754 -0.085606776 0.25312728 -0.14014943 0.320047 0.30930752 0.5455611 -0.0014737127 0.10984217 0.22698209 -0.025539624 -0.040176738 -0.213082 -0.39100805 0.40820065 -0.23942691 0.27475432 -0.17687905 0.08386497 -0.64794993 0.061708458 -0.22335118 0.69573903 0.31160206 0.3525546 -0.3317375 -0.029726166 0.10346108 -0.34897807 0.13537946 0.66402143 0.094321474 0.19551672 -0.11088157 -0.25770023 -0.27900696 -0.26440415 -0.34180024 0.28440365 -0.35155985 0.18050152 0.013183354 0.22888137 0.10286137 -0.11094555 0.028495194 0.26672998 0.70026726 0.21415447 0.47718102 -0.031842057 0.09353318 0.1880708 -0.10546348 -0.23134144 0.1998679 0.24078129 0.21536896 -0.043450747 -0.41351292 -0.29545444 -0.08878722 0.020183004 0.36786857 0.07759235 -0.021541141 0.014600397 0.10840745 0.012291714 0.1148548 -0.0033565308 -0.13410497 -0.10180537 -0.30318254 -0.24639115 0.10311319 0.08434874 -0.21299592
die 0.37296847 -0.42092493 0.10339651 0.30050275 -0.12914087 0.12395404 -0.056788202 0.48652786 0.030080948 0.1458645 -0.16229936 0.031402133 0.13089252 -0.1241259 0.008533307 0.04066968 -0.13312645 0.09969963 0.05243448 -0.53368515 -0.0006492279 -0.08027206 -0.25977662 -0.057860464 0.17859344 -0.108292006 0.23077106 0.23250486 0.39075717 0.0065232194 0.07625113 0.16238755 -0.020141635 -0.025348304 -0.16043907 -0.2764602 0.3031312 -0.1729035 0.20181228 -0.13186242 0.056094788 -0.47210675 0.035487935 -0.16212769 0.5090437 0.22920707 0.25481823 -0.24535295 -0.022816798 0.07755014 -0.25217244 0.095080234 0.48516947 0.07318314 0.14273943 -0.080016606 -0.18656623 -0.20878111 -0.18743233 -0.24879782 0.20215377 -0.25726146 0.13271752 0.009105143 0.16671176 0.06794399 -0.08519066 0.012202348 0.19531778 0.5112134 0.15782544 0.34660718 -0.019156165 0.06555641 0.1450872 -0.07753887 -0.16720457 0.13987824 0.17822337 0.14829925 -0.030161083 -0.29421538 -0.21201703 -0.054969274 0.010111462 0.2665066 0.061733514 -0.010976799 0.008960578 0.08064089 0.0052786353 0.08749664 -0.006106755 -0.10168474 -0.07432967 -0.22004099 -0.17782134 0.077891745 0.05725545 -0.1548303
thanks 0.38846657 -0.44718972 0.123984404 0.32567424 -0.14475246 0.130219 -0.059999097 0.5246079 0.025523826 0.16008225 -0.16297305 0.032095604 0.13719267 -0.131777 0.0077531245 0.045563616 -0.1494522 0.10991506 0.048200548 -0.5603088 0.0069090687 -0.104394 -0.28848487 -0.059346274 0.19903181 -0.10275653 0.2544088 0.23812562 0.41429833 0.00072805857 0.07915375 0.17259611 -0.011389473 -0.0285157 -0.16388083 -0.3089787 0.31509826 -0.19204085 0.20984955 -0.13889176 0.071208075 -0.50589323 0.0535728 -0.18027046 0.5457397 0.25297686 0.28250676 -0.2540725 -0.021804096 0.085061714 -0.2816265 0.11463816 0.518684 0.06471004 0.14310028 -0.082820825 -0.19525476 -0.22126444 -0.20968448 -0.2548427 0.21230744 -0.27171925 0.13143872 0.018686034 0.1683183 0.07043355 -0.082306415 0.022721473 0.21201466 0.55603904 0.1643064 0.3645914 -0.022324588 0.07840708 0.14161101 -0.0855015 -0.18846707 0.15527996 0.18973169 0.16497053 -0.022831814 -0.31430715 -0.22386567 -0.072786525 0.019916637 0.29314107 0.05772519 -0.015554131 0.01838589 0.080432974 0.003048755 0.08555432 -0.00325627 -0.107260965 -0.080853544 -0.23407027 -0.19700272 0.073382854 0.059447438 -0.17112255
make 0.4590525 -0.5252646 0.14057197 0.37540278 -0.16410643 0.15173158 -0.081529014 0.6103858 0.036382306 0.18503855 -0.2013221 0.037159972 0.16008241 -0.15546025 0.01657269 0.052857928 -0.16964824 0.13501078 0.06385783 -0.67859125 -0.0013137341 -0.110029824 -0.33354053 -0.07676403 0.22818732 -0.13197863 0.29894158 0.2831764 0.50510585 0.0042526713 0.093685895 0.20778444 -0.033892345 -0.035480663 -0.19804229 -0.3528467 0.38011694 -0.21712641 0.25434268 -0.15712908 0.06939068 -0.5980238 0.050023112 -0.20400272 0.6352162 0.29404783 0.330493 -0.30741164 -0.02727132 0.08886493 -0.31690556 0.1285088 0.61430186 0.09326575 0.17956115 -0.10285729 -0.23341094 -0.25973478 -0.24287234 -0.31048262 0.25899822 -0.3219202 0.16602662 0.009023963 0.21885753 0.0892929 -0.09828656 0.017375344 0.24314594 0.64366496 0.19510478 0.4361503 -0.039032053 0.08771259 0.17575768 -0.1022072 -0.210675 0.17967516 0.2179091 0.1905209 -0.042337295 -0.37991843 -0.27314413 -0.08076896 0.018345974 0.34356767 0.078578375 -0.017798003 0.008925315 0.101475805 0.010753979 0.103558354 -0.0019038058 -0.12433812 -0.09759311 -0.27631706 -0.2234394 0.093150586 0.076142535 -0.19320062
still 0.34885854 -0.39929092 0.10643165 0.28778547 -0.12040037 0.12000502 -0.06354037 0.4638806 0.030948391 0.13640493 -0.14790778 0.023025835 0.11807875 -0.11708721 0.013214434 0.03700795 -0.13092777 0.099593766 0.04480761 -0.5081648 -0.0056635663 -0.08589511 -0.25282302 -0.054724835 0.17799936 -0.09985165 0.2268933 0.21783154 0.3762579 0.0024658497 0.06956103 0.15092805 -0.025279943 -0.02194055 -0.14921969 -0.2617009 0.28502047 -0.16854915 0.18617015 -0.11610855 0.045551863 -0.45549804 0.036780957 -0.15895939 0.47844365 0.218751 0.24452454 -0.22381908 -0.02197904 0.065656655 -0.24484995 0.09641525 0.45768446 0.0719484 0.13892709 -0.07762029 -0.17294997 -0.2025372 -0.18494673 -0.23958793 0.1987167 -0.24422793 0.1159928 0.0142827155 0.16181739 0.070791356 -0.07381864 0.014989994 0.18516673 0.48834452 0.14778788 0.32846865 -0.022268927 0.06970924 0.13789757 -0.075597726 -0.1574938 0.13823278 0.16637889 0.14924286 -0.03178015 -0.28539678 -0.20793585 -0.054210078 0.012360222 0.26158252 0.05281026 -0.020492584 0.007324312 0.07127972 0.01397178 0.080499746 0.005330212 -0.100907624 -0.07056264 -0.20750874 -0.16642247 0.07732987 0.056063235 -0.14947377
yes 0.31929046 -0.36262423 0.09484586 0.25895438 -0.11132631 0.11157378 -0.056212552 0.41965622 0.03047392 0.12992752 -0.1372109 0.025613071 0.10741522 -0.10217149 0.0034695372 0.04039835 -0.118346445 0.08597276 0.040349454 -0.45761108 0.0051321713 -0.072091535 -0.22880088 -0.050642632 0.15171114 -0.0961495 0.19806273 0.19521692 0.33810425 0.0060896473 0.060133792 0.13629295 -0.017197834 -0.024037216 -0.14126834 -0.24188392 0.26170856 -0.15564133 0.16890593 -0.10928292 0.0428364 -0.41311535 0.030758528 -0.1350879 0.43526238 0.200372 0.22219998 -0.21022186 -0.017043669 0.06190194 -0.21690254 0.085644715 0.41770944 0.06467436 0.12380887 -0.06836008 -0.16418116 -0.18058686 -0.16245577 -0.21336101 0.17475386 -0.22261102 0.111747004 0.013621258 0.14719817 0.062960505 -0.06631941 0.017178012 0.16893831 0.43752235 0.14112827 0.29577821 -0.02603245 0.0639786 0.122197196 -0.07118449 -0.15025192 0.12896098 0.1475214 0.13623373 -0.019148722 -0.2642037 -0.18101987 -0.051250756 0.01178358 0.23076071 0.054444667 -0.019898176 0.0047861976 0.06343392 0.0039157653 0.070753746 -0.0035668397 -0.08687494 -0.074274465 -0.19461557 -0.15725617 0.06299604 0.049044807 -0.13389865
would 0.53171116 -0.6004062 0.15989365 0.4400104 -0.19688869 0.17828728 -0.097223565 0.6987335 0.03756826 0.2093073 -0.22735347 0.039946273 0.17751722 -0.17862874 0.014004649 0.06687811 -0.19226375 0.15088733 0.07329518 -0.7746246 -0.009751557 -0.12823029 -0.38607046 -0.07862073 0.2574088 -0.16055033 0.34410954 0.32658392 0.56637454 0.008056163 0.10721273 0.23771936 -0.027188998 -0.041518323 -0.22539681 -0.40159175 0.42637697 -0.2553618 0.29917568 -0.18019797 0.07085191 -0.6829924 0.05886099 -0.23770238 0.72858936 0.3300334 0.3754192 -0.34850848 -0.03771534 0.11315868 -0.36584312 0.1443003 0.696263 0.10280967 0.20049006 -0.12201818 -0.26523295 -0.2904917 -0.27208573 -0.35609803 0.2867477 -0.36956888 0.17698853 0.011238365 0.24413872 0.099121794 -0.115249515 0.020139294 0.2843589 0.73288363 0.22416013 0.48796368 -0.039849263 0.101032 0.20207588 -0.1196909 -0.24165346 0.20683216 0.25035232 0.22426908 -0.03675425 -0.43322894 -0.30023277 -0.09286348 0.027452063 0.38902265 0.087844305 -0.017690971 0.018427022 0.1075099 0.0101939505 0.12788232 0.0017686099 -0.14061455 -0.11226425 -0.31565195 -0.258572 0.10359604 0.09331853 -0.23042871
complete 0.32543162 -0.37955794 0.10671962 0.26717323 -0.11607108 0.109137625 -0.056676466 0.43688634 0.023336822 0.13402657 -0.14207612 0.02552448 0.11725041 -0.10775755 0.008969555 0.036956657 -0.1249855 0.088432446 0.039057896 -0.48700762 -0.0003469833 -0.073655896 -0.24424458 -0.05775897 0.16937515 -0.092484206 0.21767059 0.2002109 0.35642034 0.0026438746 0.06601119 0.15034276 -0.024366679 -0.022354683 -0.14309378 -0.24969637 0.27373374 -0.1542253 0.18579967 -0.11029568 0.053204514 -0.42766201 0.039495435 -0.14165588 0.46085486 0.20703119 0.23879772 -0.2162387 -0.017101448 0.071552485 -0.23166119 0.08899248 0.4365125 0.05995746 0.1242354 -0.072450854 -0.16215271 -0.19064863 -0.17098068 -0.22970079 0.18893649 -0.23028688 0.115553275 0.0109713115 0.1544234 0.06653483 -0.07027151 0.010623669 0.17544441 0.45683903 0.14588407 0.31150922 -0.02545949 0.06607196 0.12875189 -0.0699047 -0.14999945 0.12957427 0.1577181 0.14374647 -0.024627939 -0.27036488 -0.19300508 -0.051255632 0.013783967 0.2410384 0.0531305 -0.014501965 0.012457631 0.06687866 0.0082143545 0.075723656 0.0015054154 -0.09161887 -0.07142973 -0.20339833 -0.1572282 0.07000915 0.05061612 -0.13782407
say 0.33876455 -0.38718745 0.096534684 0.2746045 -0.12162558 0.11405336 -0.056236472 0.44707763 0.026035799 0.13118078 -0.14159681 0.025371088 0.11488922 -0.107261 0.013765577 0.039947115 -0.123546466 0.0953069 0.040080167 -0.4912247 -0.005963497 -0.07585935 -0.24458963 -0.056671992 0.16973591 -0.091360524 0.21272793 0.20590913 0.36558864 0.0063063586 0.06619174 0.14507334 -0.017417703 -0.02169889 -0.14470716 -0.25624752 0.27340165 -0.15977207 0.18860054 -0.11653445 0.043761645 -0.43201903 0.03890543 -0.14524455 0.45752692 0.20850983 0.23179108 -0.22322364 -0.02654792 0.0688559 -0.23345123 0.08503495 0.44508564 0.061506946 0.13421743 -0.07384536 -0.1660143 -0.18728094 -0.17839812 -0.22733913 0.1795852 -0.23386724 0.114025846 0.013381032 0.15491931 0.06566555 -0.07955725 0.01868862 0.18199542 0.4627158 0.1463963 0.30911434 -0.018516809 0.06689557 0.13145919 -0.072056144 -0.15335453 0.12594125 0.15589488 0.13717511 -0.026761841 -0.26926494 -0.19460385 -0.05170347 0.012438573 0.24785395 0.051647708 -0.0155190965 0.011643385 0.06763247 0.007998305 0.07298714 -0.0006166912 -0.09645317 -0.07107769 -0.20434885 -0.15903571 0.074094445 0.053885553 -0.14137089
loving 0.32989022 -0.3788705 0.104903415 0.27094072 -0.11273112 0.11244109 -0.05245462 0.43734008 0.028978216 0.12861815 -0.14263083 0.025601367 0.11936544 -0.11592121 0.0045260866 0.042748764 -0.1260501 0.09681795 0.045563944 -0.4863572 -0.0033614307 -0.07840847 -0.24268734 -0.05064434 0.16822685 -0.091603175 0.21661621 0.2010507 0.3559257 -0.00046238827 0.07192965 0.1505846 -0.023584343 -0.022073345 -0.14279681 -0.25095746 0.2677497 -0.15353905 0.18718164 -0.10783314 0.048059 -0.43227458 0.03404937 -0.14944403 0.45894492 0.20582187 0.23303431 -0.22082686 -0.016710408 0.06590277 -0.22466454 0.090900436 0.4424797 0.06512232 0.12944798 -0.07902488 -0.16130245 -0.19155687 -0.17827086 -0.22286361 0.18630049 -0.2335299 0.11408596 0.008026491 0.15742214 0.070841044 -0.070912 0.013427811 0.17391934 0.45303735 0.14335938 0.3156897 -0.027467716 0.066076726 0.12943994 -0.07047224 -0.14843032 0.13170561 0.15486495 0.13552219 -0.028796261 -0.2699354 -0.19080043 -0.055226874 0.008387622 0.24953374 0.047644533 -0.017102286 0.008655459 0.06725881 0.011873369 0.08337378 -0.004844606 -0.08882224 -0.06648355 -0.2005057 -0.16297817 0.06454804 0.05324295 -0.14574452
world 0.37578142 -0.43194437 0.117792465 0.31634918 -0.14101203 0.12016474 -0.061399147 0.5050036 0.031050587 0.15517014 -0.17381272 0.033617787 0.13331342 -0.13255472 0.01121334 0.046159312 -0.13583268 0.11277839 0.056428067 -0.5538878 0.0042673536 -0.08676365 -0.27240887 -0.053589772 0.19362482 -0.111864224 0.24908476 0.24093926 0.4138362 0.0012396144 0.07662055 0.17038345 -0.028621195 -0.02743184 -0.16718051 -0.29380894 0.30634278 -0.17777672 0.21011047 -0.12654988 0.05179406 -0.48990205 0.044264626 -0.16555974 0.5267385 0.24551846 0.26533136 -0.25147128 -0.027556242 0.073770955 -0.259419 0.10196079 0.50598836 0.073772356 0.14471462 -0.081165366 -0.18677089 -0.22112621 -0.19854583 -0.26031917 0.20540933 -0.2580685 0.13299437 0.010308461 0.17432119 0.07508925 -0.08332985 0.022478247 0.20554698 0.53013676 0.16413246 0.36137664 -0.0288459 0.07027817 0.13988486 -0.09068251 -0.1675644 0.15132543 0.18275121 0.15247536 -0.026376452 -0.31306842 -0.21437445 -0.059109453 0.0060099913 0.28193966 0.06457275 -0.023092823 0.005960532 0.07311194 0.007631765 0.0910771 -0.0037334089 -0.09770658 -0.07738281 -0.22575305 -0.18401453 0.08474499 0.056560386 -0.15655866
swear 0.2808152 -0.32345182 0.08330692 0.236126 -0.10272686 0.09513004 -0.046297856 0.37588093 0.024436807 0.11641516 -0.12705903 0.026586367 0.10215107 -0.0947767 0.010397702 0.030303305 -0.10825787 0.0817326 0.03281778 -0.41749758 -0.0050956616 -0.061761603 -0.19874988 -0.040399883 0.14023057 -0.08634258 0.18235368 0.172316 0.304496 -0.0005066739 0.06339182 0.11939214 -0.016913505 -0.018012496 -0.12577768 -0.2148595 0.23154135 -0.1367507 0.16003306 -0.09956609 0.03769822 -0.36913857 0.028589718 -0.12037097 0.39507717 0.17383629 0.19457893 -0.19057247 -0.021655483 0.05695908 -0.19938643 0.071643695 0.37814876 0.050058715 0.10455002 -0.0669749 -0.14077172 -0.15768117 -0.14861801 -0.19529456 0.15877634 -0.19573951 0.10287686 0.0090948455 0.13024831 0.051949825 -0.06013231 0.013208858 0.1468219 0.3887284 0.122373186 0.26563212 -0.019645 0.05823059 0.10735593 -0.059134915 -0.12480895 0.11026863 0.13193248 0.116367474 -0.025655743 -0.23254094 -0.16107532 -0.04645557 0.005288556 0.20560634 0.041576575 -0.010857343 0.0045170262 0.058370475 0.008243351 0.06199921 0.00045947038 -0.07454961 -0.0625794 -0.17406537 -0.13991977 0.060791988 0.052460067 -0.1238712
living 0.33521095 -0.3781334 0.105067685 0.2784684 -0.123867765 0.114105366 -0.05580894 0.4441097 0.021994099 0.12701091 -0.14519322 0.026204992 0.11778258 -0.11652822 0.009678499 0.035472993 -0.12180389 0.09706909 0.049028188 -0.4889022 -0.0013852345 -0.077221274 -0.23868825 -0.058518425 0.17160192 -0.10141255 0.21678509 0.20749415 0.36465085 -0.0019204085 0.06861263 0.14294998 -0.019189393 -0.025287872 -0.1479184 -0.2583339 0.2705607 -0.16554411 0.1822761 -0.11379758 0.049394596 -0.4307412 0.034848467 -0.14434433 0.45645416 0.20841266 0.23860168 -0.2155239 -0.016002275 0.064130366 -0.22954808 0.08663657 0.44739613 0.061891623 0.13090953 -0.07899771 -0.16887735 -0.19295159 -0.1807875 -0.22590265 0.18255743 -0.23340029 0.1197136 0.010971029 0.15877171 0.063414514 -0.06978511 0.018101374 0.1778193 0.46286318 0.14414495 0.31508896 -0.025842508 0.061298747 0.13179426 -0.06950346 -0.15007173 0.13445586 0.15814969 0.13882074 -0.024167214 -0.2722578 -0.19028291 -0.059235163 0.011205861 0.2499615 0.05015126 -0.018416887 0.00920356 0.06999744 0.010487721 0.08384185 -0.0049496894 -0.09432967 -0.07346118 -0.20181754 -0.15758936 0.07078627 0.05744784 -0.14024886
right 0.367854 -0.4201816 0.11162839 0.30435058 -0.13864936 0.12708129 -0.06351495 0.48977178 0.033702362 0.14257804 -0.15852357 0.027898062 0.12757011 -0.123630494 0.0073876055 0.043747626 -0.1379298 0.10166842 0.043221116 -0.5490575 -0.0033900903 -0.089830205 -0.2650521 -0.056121115 0.18840547 -0.10918285 0.2368613 0.23160431 0.40230033 0.0020582736 0.075724535 0.16561665 -0.019447891 -0.019664114 -0.16177106 -0.2852469 0.29757157 -0.17621502 0.20719033 -0.13194981 0.056802534 -0.48370028 0.039470837 -0.16258895 0.5149223 0.23143555 0.26679426 -0.24592039 -0.029365258 0.070245214 -0.26077303 0.10327262 0.4889113 0.07019844 0.1428181 -0.08410968 -0.18118176 -0.21446317 -0.19232753 -0.2556332 0.2042578 -0.25975466 0.12644187 0.013280149 0.17230515 0.071899086 -0.079977944 0.016625268 0.19475602 0.5153897 0.16102403 0.3505838 -0.027232103 0.0742575 0.14190969 -0.0804558 -0.1748076 0.14380288 0.17754276 0.15201691 -0.02913576 -0.30631378 -0.21287778 -0.06358914 0.015228064 0.2758839 0.057110377 -0.019727746 0.012854673 0.07320997 0.010031952 0.085573 -0.0018822844 -0.106060766 -0.081339784 -0.2168212 -0.18405454 0.07422865 0.06305044 -0.16002539
single 0.24774809 -0.27818522 0.07026268 0.20410593 -0.08645118 0.086306676 -0.04619301 0.32110578 0.02032538 0.10030451 -0.11138243 0.013221524 0.08176245 -0.0799539 0.0081767235 0.02638476 -0.086601935 0.06586591 0.032132324 -0.36060905 -0.004198474 -0.058243092 -0.17739718 -0.043278422 0.12437246 -0.07184426 0.15798491 0.14892262 0.2674745 0.005890077 0.049481742 0.1101569 -0.019421125 -0.02178264 -0.108520366 -0.1872908 0.20033213 -0.11876601 0.13760567 -0.08359192 0.031782962 -0.31192216 0.028148904 -0.11172399 0.33210787 0.1578404 0.16888982 -0.15961967 -0.0135309715 0.047203824 -0.16548802 0.06754079 0.3184614 0.04769928 0.09090569 -0.055214416 -0.11728692 -0.13410436 -0.13156237 -0.16454639 0.13764943 -0.16494717 0.08145821 0.0023855479 0.11309222 0.05098797 -0.0544733 0.008687308 0.12408791 0.334131 0.1004845 0.22973523 -0.021142345 0.05117104 0.09025593 -0.051136114 -0.11210171 0.09251469 0.111126706 0.10633752 -0.018257536 -0.20310156 -0.14044622 -0.036027532 0.008685866 0.17798457 0.03661719 -0.012774701 0.009545523 0.051267296 0.009692635 0.053635173 -0.003516845 -0.06932638 -0.049028784 -0.15033765 -0.12231506 0.05617853 0.039274663 -0.10091842
yeah 0.24463473 -0.27549008 0.072095685 0.19490089 -0.08523508 0.07859837 -0.046766456 0.31819528 0.016312392 0.090714395 -0.10139465 0.013311582 0.08595164 -0.08404184 0.004161174 0.02761661 -0.08738525 0.065063834 0.034803204 -0.35670364 -0.00017238969 -0.06175751 -0.17720647 -0.04295248 0.11623257 -0.073716156 0.15017548 0.15300414 0.26287457 0.0062864786 0.04739499 0.10523694 -0.016663874 -0.013594283 -0.09934876 -0.17854378 0.19026518 -0.12027262 0.13124429 -0.07800769 0.03503654 -0.31208098 0.030385857 -0.107508086 0.33014137 0.14598428 0.166171 -0.15316994 -0.019249817 0.043278098 -0.16545868 0.069644004 0.32213065 0.048947886 0.08994435 -0.057583597 -0.12042049 -0.14252517 -0.12468927 -0.16086468 0.13379805 -0.16725884 0.07876057 0.011447532 0.1101864 0.05445393 -0.050638665 0.0058984286 0.13132752 0.33689952 0.100152396 0.23019849 -0.016790148 0.04917535 0.08986825 -0.05613688 -0.11034772 0.094741896 0.11861924 0.09706057 -0.017028557 -0.2016477 -0.14177643 -0.03807112 0.008040936 0.17837209 0.041298743 -0.016333258 0.008056209 0.04615075 0.0059511033 0.054996997 -0.0006239049 -0.071983874 -0.04798644 -0.144276 -0.120584846 0.051948756 0.045654714 -0.10561778
thing 0.3952506 -0.45165336 0.12589864 0.33110142 -0.14944625 0.13048978 -0.07568478 0.5320303 0.035421602 0.15881918 -0.17179568 0.026165934 0.1431483 -0.13870223 0.016782718 0.045363333 -0.14726992 0.11638454 0.058635153 -0.5879347 -0.0050920895 -0.09293189 -0.28261325 -0.059171006 0.20223418 -0.119411394 0.25415573 0.24356598 0.43303022 0.0038375796 0.08121394 0.17849529 -0.026337985 -0.030489236 -0.1666443 -0.30942628 0.32547048 -0.19261913 0.22038235 -0.1360927 0.05832603 -0.5196922 0.041511115 -0.18411072 0.5542395 0.24842289 0.28827506 -0.25973868 -0.022744082 0.07755436 -0.27553812 0.10009872 0.523616 0.07128008 0.14786501 -0.09503211 -0.19933496 -0.21598965 -0.21328846 -0.27151784 0.22451046 -0.2803927 0.13952895 0.011119151 0.1845654 0.08149403 -0.0927661 0.01955477 0.21454316 0.5539993 0.17334065 0.36801305 -0.027778137 0.08080709 0.14856137 -0.09670246 -0.18203408 0.16139452 0.18935932 0.16099408 -0.02707047 -0.31987584 -0.23132904 -0.06372169 0.022236777 0.28927347 0.058629163 -0.013307622 0.009397571 0.08264229 0.007650964 0.09477781 -8.485795e-05 -0.10372103 -0.08346725 -0.23980942 -0.19525626 0.07730235 0.06960267 -0.17105354
